{"model_type": "mlp_binary_classifier", "activation": "relu", "output_activation": "sigmoid", "n_features": 124, "feature_names": ["dev_motion_gyro_mag_mean_abs", "dev_motion_gyro_mag_mean_rel", "raw_motion_gyro_mag_mean", "dev_touch_velocity_max_abs", "dev_touch_velocity_max_rel", "raw_touch_velocity_max", "dev_pin_dwell_q25_abs", "dev_pin_dwell_q25_rel", "raw_pin_dwell_q25", "dev_motion_accel_mag_mean_abs", "dev_motion_accel_mag_mean_rel", "raw_motion_accel_mag_mean", "dev_pin_flight_iqr_abs", "dev_pin_flight_iqr_rel", "raw_pin_flight_iqr", "dev_touch_count_abs", "dev_touch_count_rel", "raw_touch_count", "dev_motion_accel_y_mean_abs", "dev_motion_accel_y_mean_rel", "raw_motion_accel_y_mean", "dev_pin_flight_median_abs", "dev_pin_flight_median_rel", "raw_pin_flight_median", "dev_touch_accel_mean_abs", "dev_touch_accel_mean_rel", "raw_touch_accel_mean", "dev_pin_rhythm_d3_abs", "dev_pin_rhythm_d3_rel", "raw_pin_rhythm_d3", "dev_pin_touch_x_std_abs", "dev_pin_touch_x_std_rel", "raw_pin_touch_x_std", "dev_touch_accel_std_abs", "dev_touch_accel_std_rel", "raw_touch_accel_std", "dev_pin_flight_std_abs", "dev_pin_flight_std_rel", "raw_pin_flight_std", "dev_touch_duration_std_abs", "dev_touch_duration_std_rel", "raw_touch_duration_std", "dev_touch_velocity_std_abs", "dev_touch_velocity_std_rel", "raw_touch_velocity_std", "dev_touch_duration_mean_abs", "dev_touch_duration_mean_rel", "raw_touch_duration_mean", "dev_pin_flight_mean_abs", "dev_pin_flight_mean_rel", "raw_pin_flight_mean", "dev_pin_dwell_skew_abs", "dev_pin_dwell_skew_rel", "raw_pin_dwell_skew", "dev_pin_touch_y_std_abs", "dev_pin_touch_y_std_rel", "raw_pin_touch_y_std", "dev_pin_rhythm_d1_abs", "dev_pin_rhythm_d1_rel", "raw_pin_rhythm_d1", "dev_touch_velocity_mean_abs", "dev_touch_velocity_mean_rel", "raw_touch_velocity_mean", "dev_pin_touch_size_mean_abs", "dev_pin_touch_size_mean_rel", "raw_pin_touch_size_mean", "dev_pin_rhythm_d5_abs", "dev_pin_rhythm_d5_rel", "raw_pin_rhythm_d5", "dev_pin_dwell_std_abs", "dev_pin_dwell_std_rel", "raw_pin_dwell_std", "dev_pin_touch_x_mean_abs", "dev_pin_touch_x_mean_rel", "raw_pin_touch_x_mean", "dev_pin_dwell_q75_abs", "dev_pin_dwell_q75_rel", "raw_pin_dwell_q75", "dev_motion_accel_x_mean_abs", "dev_motion_accel_x_mean_rel", "raw_motion_accel_x_mean", "dev_pin_dwell_kurtosis_abs", "dev_pin_dwell_kurtosis_rel", "raw_pin_dwell_kurtosis", "dev_touch_tap_ratio_abs", "dev_touch_tap_ratio_rel", "raw_touch_tap_ratio", "dev_pin_rhythm_d0_abs", "dev_pin_rhythm_d0_rel", "raw_pin_rhythm_d0", "dev_motion_accel_mag_std_abs", "dev_motion_accel_mag_std_rel", "raw_motion_accel_mag_std", "dev_pin_dwell_mean_abs", "dev_pin_dwell_mean_rel", "raw_pin_dwell_mean", "dev_pin_touch_size_std_abs", "dev_pin_touch_size_std_rel", "raw_pin_touch_size_std", "dev_pin_rhythm_d4_abs", "dev_pin_rhythm_d4_rel", "raw_pin_rhythm_d4", "dev_pin_dwell_median_abs", "dev_pin_dwell_median_rel", "raw_pin_dwell_median", "dev_motion_accel_z_mean_abs", "dev_motion_accel_z_mean_rel", "raw_motion_accel_z_mean", "dev_motion_gyro_mag_std_abs", "dev_motion_gyro_mag_std_rel", "raw_motion_gyro_mag_std", "dev_pin_touch_y_mean_abs", "dev_pin_touch_y_mean_rel", "raw_pin_touch_y_mean", "dev_pin_dwell_iqr_abs", "dev_pin_dwell_iqr_rel", "raw_pin_dwell_iqr", "dev_pin_rhythm_d2_abs", "dev_pin_rhythm_d2_rel", "raw_pin_rhythm_d2", "overall_abs_deviation", "overall_rel_deviation", "max_abs_deviation", "max_rel_deviation"], "layers": [{"layer_index": 0, "input_size": 124, "output_size": 128, "weights": [[-0.01789233173389023, 0.1314074068740231, 0.09150693072232657, 0.045151467670489734, -0.13002191444322433, -0.09306720294998796, -0.14446262262457324, 0.09159349325223606, 0.02301514155923075, 0.044137898911568746, -0.14799537195144483, 0.15590580943632082, 0.12495468651677674, -0.07849766387568341, -0.10177073075435647, -0.11810649656534415, -0.046798547783982104, 0.010524974766507607, -0.019478482936078567, -0.08747466312253491, 0.033584139473574366, -0.09451786019653216, -0.03883734643761714, -0.04827594276051084, -0.04398666877779896, 0.07140908590714408, -0.11659373783544207, 0.0059495497481649945, 0.028827427343002178, -0.13621884052906744, 0.044847471093994985, -0.09764209545913011, -0.15612481411742402, 0.10987274318502582, 0.1276851877787738, 0.10351460133263346, -0.0792849281366541, -0.11255779968049595, 0.06733943616464413, -0.0315493165193117, -0.12763518526608844, 0.010240234476105663, -0.16631865809288193, 0.10599512280888099, -0.07322974606594092, 0.05597986630067659, -0.04092682982458905, 0.008950430409740305, 0.023711580431092207, -0.07260050165442504, 0.13781617990331926, 0.06798865913303312, 0.14939773926574518, 0.09824583422015351, 0.01961124941529586, 0.15212729969067043, -0.1245815761527791, -0.08197765959744055, -0.16856584051669582, -0.07209477430440361, -0.03391928882900722, -0.09012914130332506, 0.08122599396625875, -0.07373580999455684, -0.058741990056925576, -0.0011979709947951556, -0.1408797810257742, 0.09952717745014879, -0.15139600992002977, 0.16945277880130397, 0.0962231844142692, -0.07207232205998194, -0.12787389301460125, 0.10671784586067432, 0.044285830437748065, 0.07327386906465155, 0.08463457743577804, -0.15203044843290126, -0.02877576261109723, -0.11336689616261629, 0.10112518426252336, 0.038639981172411436, -0.03952638088810672, -0.12229751799724593, -0.0790905301043579, -0.05218681744201781, 0.05409439658414895, 0.051508939189142317, 0.1312905913823745, -0.030637519283607237, -0.13430788839110772, 0.08076742301605207, 0.08305164056959605, 0.045104311772951086, 0.08604405697793428, -0.028979328658743583, -0.007076454861841011, -0.04330126032705398, -0.16945503080828908, -0.14513088042754346, -0.16306374120679715, 0.054240285384636135, -0.044315370308269174, 0.009238725694830242, 0.1382177290751461, -0.056319623494549644, -0.054622225969998627, 0.057801919392803935, -0.10106192863795506, -0.11995503267737333, -0.04858569881759912, -0.10331742246680194, 0.15989145345322275, 0.08251654702430526, 0.05108573979163674, 0.09379905773197987, 0.08669402711971022, -0.09498638936717346, 0.09730224901269834, -0.005792484083262511, 0.08921794819006533, 0.10340127807375839, -0.038746673479476315, -0.13896475334647732, -0.06952104044048167, -0.03617730602909514, 0.11591863446586521, 0.12097315571871992], [-0.14211331460539212, 0.009037932938326297, -0.00908328167370164, -0.0704280162653016, -0.14509207409200123, -0.02805619213355847, 0.13285864226708313, -0.07421868337013789, -0.009380660471689752, 0.051317873125968645, -0.05124508836806961, 0.15483384726178154, 0.15428614859193931, -0.07795548240056654, -0.027973552975512725, -0.07572893516152121, -0.06826666047037924, -0.13877997858913768, 0.037686169624717325, -0.020635528445879844, -0.1478234271320342, -0.054051847006753195, 0.15254092503630867, -0.07551272804564765, -0.12827388682714427, -0.01997400752446049, 0.15983865860563293, -0.08048444421949286, 0.04121207944868498, 0.08526578660928343, -0.07175276167096457, 0.07069243577861942, -0.06451613446179316, 0.013775812780356958, 0.017421571662179704, 0.018513518103419196, -0.13150995730447013, 0.12318416219402836, -0.0549348788397198, -0.10495613436875888, -0.13900554967261042, 0.04664089299711666, 0.04060698853665701, -0.17079568696901493, 0.008439695305799745, -0.09438120113556055, 0.05417318051252838, -0.10708072960849785, 0.06918152133279584, -0.026170355149385604, 0.12119720583485914, -0.12780646818781766, -0.030452918912683268, -0.14193586323209828, 0.13906942265038713, 0.1441594681752512, -0.08178028508502097, 0.052502645222595755, 0.06682642588217398, 0.011496433588478842, 0.006503975386984256, -0.09705456596271297, -0.14268351830996387, 0.09642240285124805, 0.13158670196402703, 0.04094211651907064, -0.08177542209720273, -0.02531412634500524, 0.04240536395286053, 0.11602552848014479, 0.12666643038626135, 0.09839327994660098, 0.07033881270915987, -0.12069114970733143, -0.12241289879478814, 0.11957081819421253, 0.011681817377215284, -0.17096724002628755, -0.11942679002927217, 0.06179678072668243, -0.14578502593273743, -0.10398968854006636, 0.005934681779225468, 0.05840802925140904, 0.02750457424665205, -0.07416837655337888, 0.05917349919940937, -0.07078922952012164, -0.0312020253554144, 0.06600969949380547, 0.035756550197264494, 0.12711685855818697, 0.037495487644136835, 0.040951556289442505, -0.12483408687111122, -0.0463885420170242, -0.07431319024346848, -0.09180723079496304, 0.1235339002880294, -0.06073320208223922, 0.09662605298903656, 0.06260011297958726, 0.10712104444003137, -0.007118218547283255, 0.037558936273486665, 0.004258425387468177, -0.12157840845841453, 0.04871281611446509, -0.08482093456460586, -0.13510428209420736, 0.05926932752083718, -0.09886003208360168, 0.16692757892379176, 0.158978108391659, 0.14093073643667814, -0.0585648426318205, -0.16571925210269364, 0.13836967040325568, -0.05108282037771272, 0.141533963731771, 0.15690832564424306, 0.09050816278038969, -0.04465209146072246, -0.030127226086865255, 0.1242983708903483, -0.06376441425844649, -0.08305101497350201, 0.02760631388221949], [0.15882437088028195, 0.04857070937953291, 0.04713345274535007, -0.11786240610056475, 0.0253704650043228, 0.1563834437199002, -0.09212393843620892, -0.016268053890835986, 0.12700798787979561, 0.051934009197616905, 0.05957730483061411, 0.08403159587003504, -0.015525857166263786, -0.036638672313066785, 0.09994053326718047, 0.07439502705851488, 0.13193605837449107, 0.09986065248248352, -0.012260716513904693, -0.026067388864239815, 0.10028654892456243, 0.05999779494556252, 0.08369115125483864, 0.0712361836999389, 0.10885957250997536, -0.05224831469268303, -0.05641867483396359, -0.12169187883786921, 0.040694240100671734, -0.12574024218466312, 0.002785207417242192, 0.026660431827053035, -0.08730050605334887, 0.006131474651162926, -0.16221136527055985, -0.12298661848865503, 0.09234269837523841, -0.04013532708094734, -0.10866611814748878, -0.005879710585713829, 0.07421906727472968, -0.09209858860545751, 0.03129539790659592, -0.14680111121318576, -0.1287776416914694, 0.020757337219910348, 0.027203696638647745, 0.05655113249033177, 0.062204168549565, 0.17251947808067222, -0.004975470401463568, -0.07373785419485811, 0.10882817723414938, -0.09358050603961166, -0.04245959600530988, -0.11310099120958325, -0.1269032733760432, 0.16964231777081024, 0.07625664780126784, 0.0372104612560612, -0.028835531789211, -0.11844576847440784, -0.13264303742039993, -0.09987876498011855, 0.025874294724732197, 0.0637741727161471, 0.030438148952935166, -0.06774472873139448, 0.15298582523565918, 0.09986156073588869, 0.04153263249838278, 0.03971145771443496, -0.0229058920654884, -0.08247064549351274, -0.06549677284367081, 0.05856244209730425, -0.15157173039454153, -0.13479129671220583, -0.11545544965103388, -0.16304748902862132, 0.09637316627601167, 0.06482970310011574, 0.013342417883171474, -0.1295577466550287, 0.01801588384717214, -0.013569733031803805, -0.11448969952790171, -0.014591846439135045, -0.05178697832751756, 0.02126408568968047, 0.021256745244360175, -0.13677442029653314, -0.02819487750906108, 0.060180609523562724, 0.01029781896106264, 0.09505350714229986, 0.061553040326373994, -0.13279160006303375, -0.13894103042153821, 0.0236857415505348, -0.147374172997911, 0.027917389817992008, 0.15067017120437856, 0.02132591413348134, -0.02516182411824741, 0.06204901892657377, -0.03676736873192616, -0.003632746586086506, 0.15177341311956674, -0.021351912318137253, 0.16851942887167604, 0.12580982064739438, -0.07829219617241999, -0.1286264882986061, -0.11470242939393499, -0.1726157945488874, -0.13275645855233006, 0.060432517440200235, -0.14143627957726793, -0.049579695654932865, 0.08168185490836413, -0.16751821411861137, 0.11713033772472667, -0.08269496278839583, -0.09432463401329064, 0.04107947580557655, 0.05133554297577917, 0.12599122438180457], [0.07155590885710042, 0.1129892767856482, -0.0466407885023933, -0.09757570409801465, 0.09795112988657581, 0.1139263308712736, 0.17282694933788467, -0.040536927616919224, -0.02962134452231984, 0.06283115207312112, -0.06311627993411204, 0.15664049474302402, 0.11823051240985995, -0.03291168558898798, 0.08447605137019205, 0.0607354662268186, -0.11480256817393829, 0.13192704703152144, 0.023223979022172197, 0.06872070843232579, -0.04618622783135201, 0.11217184470173139, -0.036220358255585235, -0.1457140479854548, 0.1386344147358972, -0.13258507658335722, -0.078431293708795, 0.12932144489279795, 0.1506459936474533, 0.005531470960239872, 0.05811219234890278, -0.004791753194877025, -0.07266650918961402, -0.053003817808390766, 0.0433454821317978, 0.06967963668162194, 0.07407618334521579, 0.11035248024694017, -0.12843600887061096, -0.002452990022984736, -0.14618003994968967, 0.02591603519159782, -0.02250223337879291, 0.09714641717354809, -0.06905356113729286, -0.13931820848521703, -0.12024375069365076, 0.0674987958313204, 0.030255907866141477, -0.1161534786837966, -0.15221210009535255, 0.04233632703665387, -0.1216834449783039, 0.09068480821901308, 0.06933659894837034, -0.10807980128854602, -0.10983028142986674, 0.16578293635737612, -0.0503336124934229, -0.027552382021920657, 0.08570476807009106, 0.127955172190369, 0.14589861624994385, 0.06651395818505268, -0.0228566459124182, -0.1350130322753464, 0.09192999906767864, 0.023221262725214506, -0.03718223946668176, 0.12804795300150487, -0.11217954138972616, -0.00012385982461974134, -0.13272219752686315, -0.00949692890541846, -0.15092403749530137, -0.12631668240106125, -0.1298272588705081, 0.047421327380052995, 0.08489384621045465, 0.0001501100596101603, 0.1523537222791753, -0.026455523518060256, -0.05237169662145084, 0.13367588681781803, -0.08629239260913268, 0.1384427433794198, -0.1821118033331249, 0.15692887421205826, -0.12368120021863874, 0.1286436814994235, -0.0017340370003886532, 0.17359771669684088, -0.12446159974844394, 0.041092595028502786, 0.12434140948156219, 0.00797073619395891, 0.044429712766523195, 0.05702862752524683, -0.018277425670294892, 0.018352510680998014, 0.04594830909998771, 0.13678093404058123, -0.13366183831243408, -0.06557361804248057, 0.13831799006269554, 0.1142057853462629, -0.02049165464323712, 0.029556608615591944, -0.08170388632891823, -0.07669357155918957, 0.004354530128246017, -0.05196534918019021, 0.047521799959726725, -0.13876137701546873, 0.1640086289598015, 0.14598459826124777, 0.059174303300709934, 0.020499103445773013, -0.02888467653455475, 0.11804042230008303, 0.03726583859914613, -0.12106112396355365, 0.15115048190598715, 0.08409511679171915, 0.14870266281854577, 0.0477701272599501, 0.040002434893573996, -0.03176430738327341], [0.13996804819501643, 0.12088750878603662, -0.12290459542111735, -0.14399182255000678, -0.020033156886710778, 0.10334433593596896, 0.1626833258851383, -0.12445021827021302, 0.03357363079624627, -0.056438579962068476, 0.13310152784671964, 0.12108726799118608, 0.10444106568672745, -0.021392949260583643, -0.020954934388908095, -0.08791191884499348, -0.13060140155461905, 0.13362913045398223, 0.11279755817391765, 0.12618439786941196, 0.15467388728118117, 0.021323812898636357, 0.0843591875602254, 0.14517588487246708, 0.11807709261804997, -0.08559873603062575, -0.0427732152685101, -0.12281455831785477, 0.1446799870229151, 0.013070101003552263, -0.06958067331296713, 0.05214115562576646, 0.028831555710646842, -0.04741102055555196, -0.12598116815552476, 0.04359054742660926, -0.00932057399498743, 0.10626693616682652, 0.00623795715985699, 0.12498738027481048, 0.0015986999791140172, 0.030750418730277326, 0.11672530408088323, -0.050700761183082345, -0.13999163777448612, -0.16731460943984489, 0.06642498754067916, 0.028403985890151695, 0.03865832967997143, -0.08431226971920269, -0.13535623078379125, -0.1715035545642104, -0.03804577741765004, 0.02382695262746003, -0.04733554593309998, -0.008602562617055188, 0.139416975966694, -0.041310953120898504, -0.013552370563194614, 0.09395237600503992, -0.04216508791118995, 0.026552486316124533, 0.11540392890366025, 0.12682746840233708, -0.09810893986254414, 0.120626432508087, 0.004017912915931724, -0.07630367807102349, -0.03223308996944207, 0.16223396939983445, 0.005810275161681472, -0.05183932996750482, 0.05455821338178162, -0.07868408177932372, -0.14825043931576676, -0.1338529146500798, -0.11770618530551624, -0.11024823085058626, -0.10400437230090451, 0.017313266888862172, -0.10347538291795391, -0.0359586608864484, 0.10715341038935101, 0.018500769307301938, 0.056545851318595845, -0.11391135862104859, -0.12835522027748, -0.13587765124837956, -0.08898006720114686, -0.05914984837771611, -0.10792455232822049, -0.12040009799056427, -0.11132037946161806, 0.0111579633044165, -0.1020624089295492, -0.04417903089763226, 0.0049123464997557435, 0.047758225891163866, -0.15474379605370586, 0.07383473394950917, 0.058169887023585005, -0.1277521270246633, 0.11214456720626123, 0.1282564573968386, -0.12405150005965301, -0.06426131115420684, 0.08539339849914858, 0.06385984321121052, -0.11076172111504771, -0.07455840287253623, -0.025168768178370198, -0.01983950581092616, 0.06065071659227846, -0.0562661526150348, 0.0026133402714247707, 0.06259059799250451, -0.13452867575105734, -0.06876891870311355, 0.07787327080098679, 0.1341104017983364, -0.02213230913782016, -0.0022837584967817658, -0.09585377993363575, -0.0253101303952333, 0.022367883170487223, -0.09800301395137255, -0.07319266428272558, -0.03541730305145546], [-0.1471323506056277, -0.05023789090967094, -0.09236098436979669, -0.04254571613747925, -0.11034678542898432, 0.11407120979522513, 0.03219115497479947, 0.07886983250999781, 0.08587160594997453, 0.017969235259466067, -0.11895674023019673, 0.011739178038466108, 0.02936784344456972, 0.054440709953528406, -0.03449898015433123, -0.09625570361990872, -0.0898944061469438, -0.05286460702627755, 0.07550385548954676, 0.041393152326853665, -0.04529269263503569, 0.1264593773100861, 0.01568417436749746, -0.05271642340853921, -0.1405730453347536, -0.11814076559956913, -0.0639186378162438, -0.08283203611327203, -0.0778247541777112, -0.04217723973413367, -0.11744643996833223, 0.118398344509866, -0.10594924544666712, 0.036741263083932024, -0.01530866166826505, 0.1328672886814902, -0.13246625263911913, -0.032211329687599675, 0.136287475271846, 0.1091932742173015, 0.11967118541468635, -0.06791910392743396, -0.11520503000737849, 0.05110669741106401, 0.11693972255497638, 0.013959915141292393, 0.03483787637408075, -0.0922149804822461, 0.10563835154483739, -0.1158395645812516, -0.045658463510884845, -0.0027128292095695847, -0.010211337900584705, -0.06600312172085436, -0.1123544018505577, 0.033943975917197305, -0.07740666883868381, 0.01703495342480556, -0.07708010504640284, -0.001567177639539184, -0.009981594168603837, -0.1354774327901683, -0.02814767095365618, -0.10362691134580893, -0.12494165025584984, 0.15937870546515268, -0.04430757045062155, 0.08963487972069008, -0.058562949335514265, 0.04201034080566805, 0.08893617667444645, 0.03569954837466585, -0.028401432703739647, -0.01069068600060548, -0.03190736987791152, 0.15127776514235539, 0.09823749149474902, 0.16192034977032224, -0.12059125124960927, 0.07615502593351899, 0.15847231256348207, -0.09814523965369917, -0.11743819565442945, 0.05700961840989699, -0.002729280021384662, 0.09286864149383797, -0.11123426982647752, 0.0904164796740935, -0.06699262534727263, -0.09426720178380465, -0.09441724709922167, 0.08724875883406605, 0.03182748063439997, -0.0008881589240415858, -0.05830805911390125, 0.1290832175521326, -0.04373490504443517, 0.12129963852333986, -0.0016754693876631908, -0.011122331220034498, 0.00844165215210648, -0.08081631518353699, 0.09780770604104562, 0.006111869543015714, -0.08981231168491362, 0.12121182174562893, -0.02342533639957536, 0.0346741408146253, 0.12540013268643144, 0.032301636727736824, -0.11684077831803041, 0.15100440881860752, 0.057367744420922934, -0.025495896793009263, -0.12463772594116196, 0.09177793971030991, 0.01366515509155597, 0.009741305462700394, 0.11570129490539971, 0.12220027055515832, -0.10101825365081572, -0.05145643813847569, -0.08503095718413835, 0.07938520972071397, -0.1334435909573912, 0.04159705703901564, 0.08492090108540713, 0.11087335045560724], [-0.07086984013196533, 0.09618997191182245, -0.10980219632170957, 0.11753225338296207, -0.1369405468262451, -0.024533938491999325, 0.10220970195863867, -0.12318711548343178, -0.06950140419095485, 0.05248043999591203, 0.06115363347876513, 0.041263401095469936, 0.06480790212791197, 0.007743002150169553, -0.053585329307648324, -0.06645482145677845, -0.08521726278086827, 0.1404439523542756, 0.022734437404427918, -0.036260285613741276, -0.0056928434749386, 0.15641032577651712, -0.09386064291698168, 0.034455496207697625, -0.018163903693244783, 0.033282382784263424, -0.15832501328444382, 0.134490437491452, 0.14344097939373787, 0.008223943084231328, 0.07369769568356066, 0.12587648018577258, 0.04574614182439902, -0.1260839464548465, 0.05185353880724278, 0.013420523746646415, -0.047882771109077966, 0.07938484983669823, 0.15779748914764968, 0.11824537911205724, -0.02718357979567631, -0.12076333585743829, 0.13478551038656292, 0.09976406435548933, -0.137451802445478, 0.1479730835189759, 0.09373954475024239, 0.015717323103871587, 0.04495456706826006, -0.04620907146715398, -0.10656992675049975, -0.06567804159766984, 0.1062762636803993, -0.16773606155707113, -0.05467898201071463, -0.030334144740567445, 0.011948074697963482, 0.1409483653293502, -0.06337871882699167, -0.03689691835327884, 0.04879278535563442, -0.036477606885581194, -0.0933759533208821, -0.041146262442779004, -0.10212766931009727, -0.11266422129405465, -0.0067554414999064245, -0.012533150710941212, 0.09548160007404756, -0.03338829018059866, 0.014704180764189083, 0.02003847180474765, -0.12650107343083047, 0.06572378157252129, -0.0915249641529795, 0.14017441720271007, -0.11320241686914762, -0.039084064459802344, -0.1157431988857089, 0.164882609211023, -0.003329041322133159, 0.03976778160734099, -0.15180223494676362, 0.09076467824639266, -0.10474028633571845, 0.12232137652752884, -0.11355949954423257, -0.08948088148433243, -0.12962935030442702, -0.002274423668760578, 0.020789266821008536, -0.12755546023989942, 0.07381156222505465, -0.013783153580408275, -0.0012554753804224945, -0.03863723949313873, -0.04939316407906479, 0.0027855263245676054, -0.12173974383098835, -0.11256583158938097, 0.10024290736950396, 0.14897284067051428, -0.03479977322768283, -0.06962216536319886, 0.05725086800798905, -0.01405893269955704, -0.16696323443468833, -0.12270280448932923, 0.052935242887573244, 0.050669362845842766, -0.14397511708040783, -0.0829982069378388, -0.07613655802072065, 0.04303873164630416, -0.14816895622453857, -0.1139391669980385, 0.10051017218191141, -0.08964576258450264, 0.034648312731626545, -0.08406628731579804, -0.101378335940764, -0.09644202703017316, 0.06540854909525023, 0.10632788483168766, 0.09601611953637926, -0.03570508062418982, 0.05399198203860381, -0.09115167187865783], [-0.08386975947258465, 0.104008594016936, -0.14221213788550613, -0.12326862129085876, -0.11039614600860483, -0.13791735962044577, -0.10779426712948316, 0.023068723984696837, -0.005989669699697725, 0.11571104397792173, 0.10154484293062103, -0.06959534870713933, -0.08745899332893363, -0.053213276248017805, 0.05921673740070992, -0.08603057748322722, 0.06356240591802158, -0.0038425788207533088, -0.004992682103608033, -0.0009329887555423489, -0.05507620278529875, 0.16277549478673606, 0.08894447418743207, -0.12081217458162467, 0.09251448411089994, 0.018404148513196786, 0.0982984642552859, 0.11072346586588955, -0.027194871839403056, -0.15155018373280044, -0.05989264300879504, -0.014026086748448945, 0.0245530442877557, -0.09687621974884236, -0.08470603632710097, 0.10431984979933247, 0.12115629454392338, 0.013748897276415161, -0.07549104818744239, -0.07399854040771746, -0.17139496393375722, 0.11733739794781778, -0.13067051333645016, 0.03500571981672151, -0.10043934542949769, 0.015147373802310227, 0.023700886022952828, 0.13519152637434306, -0.09832061909351353, -0.17384371264237294, -0.07864715872446072, 0.1152204856576491, 0.10476666607652609, 0.016220434701977506, 0.014373388898199242, 0.03735966882480337, -0.08460283787951423, 0.11663239294351117, -0.04011118144425694, -0.022947436613940157, -0.007905916617252746, -0.16212379609792732, -0.10576003630050955, 0.04510172055311217, -0.12042754953533535, 0.010219460527152982, -0.08192033145886579, -0.03509755073871622, -0.09425322606318527, -0.028545331191277123, 0.03902104225787392, -0.0901219122502151, 0.03758006894654984, 0.004219414427965505, 0.06665453611775467, 0.11018296687734648, 0.09169965627265107, -0.09941353015511878, -0.13284194780051256, -0.0661375901720293, 0.023656207948335714, -0.13143053734274726, -0.024977983035599186, 0.04933068047408618, -0.04069114770395105, 0.07438229134711498, -0.1164456848402229, -0.12612699622438495, 0.08882448675576528, 0.0034241989999552382, 0.07789500998680506, -0.03182029224897156, -0.07685867002105679, 0.08553746325335826, 0.08656985093511892, 0.0415080163948234, -0.08421193192649708, 0.005326449230876623, -0.05496064189571023, -0.1352957476616414, 0.12950705641920338, -0.11346009373685488, 0.12673509790586734, -0.014114518544406218, -0.08569635395247506, 0.033507229071303976, 0.09665667586275331, 0.0609779976761548, 0.0914232502308681, 0.05482803115679214, 0.04636835576568892, 0.1049354944322528, -0.09584756012786258, -0.03122641662311807, -0.08652582453273881, 0.1415935088848319, 0.15713755274811791, -0.14020593238655724, 0.0698344615534516, 0.10205564738879255, -0.0835131149277315, 0.004226294990565852, 0.1108082271531351, -0.1447473155137894, 0.039743154517160734, -0.0663614429716149, 0.13332082943540485, 0.13361754377624635], [0.1154017042567624, -0.028049438526864843, 0.10384766158192711, 0.09843943761782725, -0.04141671666231439, 0.11111709827046602, -0.1629266380685672, 0.02471380392186799, -0.09157257177409014, -0.12240653861215255, -0.10486716847773797, 0.051176548707954794, -0.047028343578834036, 0.04618171991890018, -0.12867627405431098, -0.05847333586514967, 0.01818240507728796, 0.07578690524060501, -0.06231735632768001, 0.029211042134642144, 0.1039163669675504, 0.03024075201004592, -0.09317219408667225, -0.16460472312080565, 0.13571797217045908, -0.15242651358754178, 0.10932222722552223, 0.0076228686225711505, 0.13048558168056448, 0.08118204383244039, 0.14984262720637956, -0.06970209985355512, 0.07706996670434985, -0.04973046637300467, 0.013156225053251598, 0.051917272980253185, 0.1316181083382037, 0.15344254597439808, 0.09396783901234225, -0.009308200697652856, -0.0219106992388974, 0.05012899252563876, -0.11095675912083089, -0.12739856484889217, -0.05610789708442919, -0.09122098448243685, -0.07388137752264, -0.06984854658964644, -0.1680759552214035, -0.1498224888213667, 0.17079305425565386, -0.02162393759053205, -0.04721209961663241, 0.06260333557724745, -0.08917197330444776, 0.12122755005316842, 0.11091611160292313, -0.12886308751078274, -0.04570224773141456, 0.13188355841209207, 0.16288244091190676, -0.02877127240080104, 0.030949993313210418, -0.1240603901113917, 0.15302173937019137, -0.09476940813621546, 0.11568738675962977, 0.06266398858211417, 0.00516489485468718, -0.0011822881091011197, -0.08539017805444384, -0.12026386571930962, -0.09446696184328911, -0.09316169150155658, 0.09983610212660157, -0.07019457678731031, -0.15307757654467816, 0.1531905045237157, 0.12899522894536744, 0.12031507024026354, 0.1531590319953809, -0.09148995016859585, -0.051911502211264414, 0.08050830776422292, 0.0503345807079641, -0.10602030764945881, 0.09712768781677251, -0.08619296151266279, -0.09792095058261258, 0.01114957605327524, 0.041451887348611605, 0.00779416810026592, -0.12096016398505784, 0.09750526973374249, -0.06340749319638074, -0.10487822277062013, 0.121754243110316, 0.12553877531439886, 0.11438059266114872, 0.09535977009623049, 0.06035824608820523, 0.0063616701571219125, -0.14950018234098708, -0.008417488418910258, -0.030363264945153366, -0.07965075080443099, 0.07113523669083925, -0.012290490875258974, -0.13847356096026603, -0.07970263910318351, 0.04357705068224747, -0.1314503042717232, 0.12638092006536764, -0.031703695097149584, -0.018452802079042527, 0.023365513278973613, 0.1053202600349348, -0.06325183925682389, 0.0451254427529759, -0.008696027094203725, -0.07350610378263853, 0.11650440835871777, 0.06310300442121511, 0.052887138317696925, 0.10833864769746611, 0.1383457345497249, 0.04359335958401379, 0.11230364045055738], [0.08038356550506898, 0.06866456384549516, 0.05567695976946019, 0.09354908271776508, -0.13390537357876905, 0.1326504421820049, 0.13093862230298153, -0.15035873518122098, 0.11576287429908494, -0.136350374544032, -0.06304142837595787, 0.08508380569748067, -0.10567914659628279, 0.12128993126302738, 0.08521499713675966, -0.01678186922646845, -0.13816555686036, -0.06232737615970926, 0.062266579438734385, 0.12558762221898093, 0.052624891472567326, -0.05380904492364917, 0.06435384586311392, 0.035334409126711326, 0.06555784786733256, -0.14248688295607875, 0.1022565181622284, 0.035926258599218885, 0.1554970871603004, -0.05035585433144837, 0.05316432827721591, 0.16146638112463466, -0.15001848563362516, 0.11508769646425014, 0.03438710995985697, -0.14476318523449416, -0.08769911745847453, 0.0801778292095913, -0.12401939322147126, 0.0007942181476079745, -0.025000812947179044, 0.04705246472345393, -0.16220186848858353, 0.08478139413466047, 0.1732777403325535, 0.15374816254088008, 0.10785968549069065, -0.1243159947291469, 0.10630000611230636, -0.12520931952829603, -0.1330152884627736, -0.08320280077702817, 0.019033657051309657, 0.05696600890969906, 0.0818107260269673, 0.00892495227594431, -0.08814843363917108, 0.18057136298379003, -0.04803732998337108, -0.03512211798510655, -0.13398202932198433, 0.06362630834431278, 0.034275902851332855, -0.11368919991971554, -0.11553637271822158, 0.08270681527215142, 0.016149171754771777, -0.06027480489865026, 0.14500172348565618, -0.09138274948373445, -0.0020870209231021813, 0.15844041743174664, -0.02372420202833028, 0.06355596634519235, -0.05089699311157078, -0.03976230641563386, 0.12760933446806097, -0.0540978033699212, 0.1408089455809779, -0.10945833561103607, -0.09468558810787189, -0.13368566279275199, 0.061946936288881, -0.04098465261343304, 0.09296940471766146, 0.011801567979713505, 0.13247837318787073, -0.07615945718161099, 0.11981674743280171, 0.07477620396414521, 0.06789989817311955, 0.12386084436062922, 0.062169617353702966, 0.05372488102477741, -0.1316381753458713, -0.1678625064916442, 0.10481327814753849, 0.03870924823614616, 0.06957429976618165, -0.029562941056311524, -0.1285136921029153, -0.09499220332501826, 0.07335171328156277, -0.027361521938877562, -0.07905661513998402, 0.0035762964282554, -0.15992424619160944, 2.980102771923951e-05, -0.09553936725798738, 0.08050720980000321, -0.041689643489574484, -0.005234229559962498, -0.13158363967376557, -0.12100760493871576, -0.026697365632760508, -0.029464474841501803, 0.016592740196287526, -0.04699695334983402, 0.03800829322029657, 0.12997137789388033, 0.07739976340045074, -0.16447154569807085, 0.01134484522096512, -0.1365420450908648, -0.06086935770628463, 0.12713557964245725, -0.1094948750675446, 0.011976836725508196], [0.056584663720780186, 0.07778152348521838, 0.03823475485885689, -0.1354018890740466, -0.08166456541980244, 0.015502166336741851, -0.10736280616060255, -0.05178957784621777, -0.13055561684201525, -0.15065544644778164, -0.045956609701270884, -0.10409839208278862, 0.01508112334187452, 0.08293621772246819, 0.0774539090345656, -0.11137176872737174, -0.08954165374715492, -0.11370245655755486, 0.06696559701772153, 0.03974255147856735, -0.13085424475476073, 0.15231292476032138, -0.11553752708018629, 0.03618705853388413, 0.04593721395913594, 0.09407044761419878, 0.08954154516087262, 0.11718559969381764, -0.03704434336904167, 0.10052179666790169, -0.11737247908806826, 0.15101606439337814, -0.012661264479923807, 0.07589476802977446, -0.04166728146645747, 0.0350848332968521, -0.019791293233622255, 0.08542045696060135, -0.12105211175811931, -0.15967076269764935, -0.05390304806212525, -0.09411534252282125, 0.0934212655534673, -0.1166258936895059, 0.16983733182236657, -0.04193003215956658, -0.06724018683717374, 0.07754639577338027, 0.07311629284601888, 0.020552501211703482, 0.020038508874900735, 0.03753034607910775, -0.06196633628879563, 0.12657716056768142, 0.1724173538585344, 0.07244444613760077, -0.11251359913339173, 0.08382303016500027, -0.15743583335681086, -0.16623965748932298, -0.10483035848740574, -0.038663189074452625, 0.08924433249595178, 0.0422408984301827, 0.08868187019301411, 0.0035723508739150898, -0.07945552638135264, -0.03446350481667885, 0.15968914544492754, -0.12089964133910246, 0.13274489182024776, 0.05069462268562271, -0.022580054282332465, 0.09042068001540854, -0.023429226713263092, 0.14444421102510688, 0.10143045718866119, -0.05039105174764833, -0.049206286798504716, -0.000330269840717211, 0.11913581442742269, -0.07659628498370102, 0.05398621476073433, 0.03843551017533149, 0.05285624987364765, -0.0927525904047331, 0.05614355123295819, 0.1476126230453463, -0.09302149584792493, -0.09334879739567638, 0.1302979585821309, -0.08307796763401716, 0.09065967329017066, 0.009839564833703601, -0.09490619719779292, 0.08905946802536853, -0.041527655634002826, 0.008241009771588356, -0.06575134176418453, 0.004989795592709178, -0.11599990781023296, -0.01064191194280055, 0.16222916756898137, -0.07981792538521512, 0.06038835617736746, -0.045165348989926205, 0.059128997840397136, -0.1389986383314447, 0.12101908371307232, -0.026097246811099255, -0.06181713986953862, -0.1237499825421738, -0.08750991567861034, 0.019227890316872595, -0.04231018538591854, 0.07959721816342778, -0.034341581842209895, -0.05954680360131809, 0.017389049668175068, 0.08304779651226274, -0.1161642600093134, -0.12473705996183751, -0.12460871345403784, 0.05991270981832099, 0.06847966240719279, -0.03256166387889828, 0.10711123468000462, 0.10486591335460765], [0.025214935248364864, 0.11977343337909732, -0.08167887084240663, -0.11005448096217064, -0.08374369053462376, -0.12669413570013996, -0.006099295965041457, 0.1512433375819808, -0.16415467273641496, -0.13280813041548356, -0.02848655661420024, 0.1471728722725489, -0.05901827976623799, 0.021347617556870296, -0.14964218313941563, -0.12252430968426196, 0.1689862596077271, 0.14867388733500264, -0.15663690062020183, 0.11570284771183972, 0.04019573249819175, 0.10461774246768735, 0.0032699432539377796, 0.003227256426436177, -0.003412532457005479, 0.02967007774129214, -0.09458462336884044, -0.15006806513373422, -0.05649891545110026, 0.054764466998250265, -0.10529269717701517, 0.06410822345322316, 0.14764284447317755, -0.14701629353603776, 0.06137546514696398, -0.0017845384279110243, 0.1292038230376021, -0.10421055791357274, 0.04408235726236023, 0.10562801551830749, 0.15185614236050177, 0.05072215375833463, 0.018345297341362494, 0.027105865352979507, 0.09721654859879217, 0.018150743830986527, -0.1288292252923182, 0.13376348453537984, 0.05954454304057384, 0.054291143851404364, -0.08023985723626662, 0.05855437495793378, -0.03296240640137784, 0.062281212234570144, -0.1390747062270533, 0.04127562274162281, 0.1438190764745372, -0.13463995327710276, 0.1361925889168451, -0.02473111305988028, 0.13531881803252305, 0.08294015686852277, 0.03142015135361335, 0.0848017049061095, 0.1101727060564006, -0.028261795931905847, -0.06848213904508711, 0.041395764751807416, 0.11261118021365242, 0.058887792161772895, 0.09560732465498102, -0.02951524477921441, 0.10322237278040725, -0.12130085621940843, 0.0134421159806733, -0.16646409234297532, -0.057950848959303934, -0.03878430941768062, -0.020722786408095866, 0.07882429791272624, -0.016266325877269765, -0.023180027955780787, -0.08702573222632971, -0.02975010596204144, -0.06775314697516023, -0.13195693386187415, 0.05205769063665836, 0.054753816309011556, 0.03813158281077355, -0.027089672617053386, -0.04120285354209543, 0.11160983883910883, -0.013726560221629103, 0.00650735775581539, -0.14522582140368728, -0.04042227379853046, -0.037193049904136154, -0.01780645740641069, 0.014739844461905934, 0.019281838853489344, 0.0162664143486765, 0.07836268684051256, 0.10694792099684784, 0.056792955990250964, 0.13496484997978717, -0.1316519012377498, -0.09214834034364446, -0.14839584730611471, 0.05476816865069564, 0.14153323096182177, -0.06416421437011656, 0.11890154056620887, -0.12571231867354207, 0.12559899869137436, -0.05456841008115836, -0.10398455035727855, -0.00899873769014969, -0.06886614128171213, -0.07787777873897529, -0.059614050558292345, 0.09278497076238408, -0.00032173149199557147, -0.04980806480183802, 0.029205187371298374, 0.06327878192949224, -0.06698925018494066, -0.039997789154692896, -0.1094150150183239], [-0.11200938671038507, 0.05998826095901029, -0.0951753171771856, 0.017798439380834218, 0.0468461414450557, -0.09822501816047381, 0.04070287524714673, -0.08030820966692404, 0.14030603718985127, -0.019951985617484454, 0.09015278529055051, 0.03597371398701611, -0.12130077745500076, 0.06411871088972888, 0.16238102658338568, 0.018304425392269806, 0.11336601771165028, 0.1321613900263674, -0.09196664842177253, -0.10293777034366246, 0.02323661168914434, -0.017372843513625696, 0.12174987947801826, 0.11792350226117115, -0.046166082658236816, -0.09609287986010567, 0.09243899843478408, -0.07606487208516789, 0.10409648055821046, -0.0029247529508900976, 0.06042024093557807, -0.12936157966472417, 0.018177301411124436, -0.03551063263444794, -0.00043329096982721264, -0.07884767673879368, 0.0793592874076817, 0.13427979673286158, -0.06699263162469689, -0.1174480643971941, -0.13629175412607447, 0.06443494541619388, 0.042534819542240934, 0.008338995779496646, -0.07983844209331707, -0.05750861599545853, 0.029816841046480008, -0.005216093980966865, 0.1708989308819698, -0.10927984313520181, 0.03749618137112556, -0.03212213945528046, -0.01332293007147517, 0.05751574016425948, 0.0628788925795617, 0.1651254260098292, -0.1084860559634746, -0.12012765565516972, 0.05175498669150965, 0.031428037860887215, -0.05907936409191598, -0.13533088849561975, -0.1318901880140787, 0.12617841959385062, -0.08661224434750228, -0.04016756465000337, -0.0905325262553092, -0.048852611763933226, -0.1375558771177495, 0.001711617433183968, -0.1352043508721054, 0.07633806529236596, -0.08204022815882808, 0.02217822755003142, 0.10804262993080871, 0.028235418176710117, -0.005825200581589992, -0.05043614500735051, -0.0378320678131474, 0.053853708669651605, 0.16742232147462838, 0.06626706908759648, 0.01683014302164847, 0.07017177539033752, 0.0078059386039231295, -0.12821420461868552, 0.03652181471169063, 0.13617840714877222, -0.10280123968768044, 0.044342616192431614, -0.10101030226099478, 0.010671923356357537, -0.12463989891848976, 0.006158159018640814, 0.08069111910045546, -0.05462537172807382, 0.0757907273080308, 0.07818654514411913, 0.11688337729274266, -0.07965112074069748, -0.05139005485676196, -0.08367048027803685, 0.17590891873601447, 0.10870154856171066, 0.02116397188835813, 0.12874325294705258, -0.001804672439862788, 0.03697496050171451, -0.1396677180206837, 0.06673818523055963, -0.09873424003161081, 0.10675528841813853, 0.08778293195295274, 0.07855061644014193, -0.13391779052524067, -0.057821149997668124, -0.09420270068604306, -0.02709930876652991, -0.14633598364732767, 0.15095474658114066, 0.027524486026441867, -0.06764610248468311, -0.018802992471285272, -0.025558318890651847, 0.03450984009670267, -0.011943186176038649, 0.15062756029845645, 0.01090698483050208], [0.16275986266746606, 0.10064099219452344, -0.08839601922535194, 0.14575964488487245, -0.13634352218219822, 0.1106738373575713, -0.023971133490509285, 0.10780342063540307, 0.12126640836038381, 0.07513738660686886, 0.0906353758709125, -0.04555984673904726, -0.1224397331706396, -0.003528913857199779, -0.07149763074143235, 0.04312758175940328, -0.02639815184734903, 0.15600980059137476, 0.03217843933365248, 0.08218409972584223, -0.11815467004882237, 0.1193557749391492, 0.14378212829009301, -0.017399855425218054, 0.02445470492215656, 0.06986526213592568, -0.09190314261684196, -0.013548792096498409, -0.014727866113757758, -0.08663113886009303, -0.03209558417255256, -0.14882251548094957, -0.1686596428296265, -0.13454341825336447, 0.13246726511404233, 0.038290389982653446, 0.126324167724635, -0.007518350763493032, -0.03794415707982515, -0.004971736508537982, -0.007185650845197327, -0.10539845386941755, 0.04056779932411061, -0.10138842624910586, 0.05185408368671747, 0.02806387979913143, -0.1032588435463811, -0.13571358522430482, 0.12046648599092666, 0.00309424883021957, -0.1495708679135185, 0.15172188984597848, -0.1363562259827428, 0.04604911962099557, 0.14714805715923054, -0.06696664573420712, -0.11127955546729183, -0.1242475993839659, -0.08184641606823606, -0.1169312005193606, 0.07135819519247394, -0.14536667028178424, -0.000171336228419953, 0.14167237972935925, 0.10443052901309098, 0.043901852276562264, -0.06847366517188996, 0.03283040369989423, -0.007565299606586749, -0.001895790880310386, -0.11560695186748306, 0.10746556983868943, -0.016494459114021236, -0.07979230125303917, -0.04891520390352975, -0.04918805090582986, 0.09768254127331741, 0.06666272167158409, 0.1014442255888578, -0.15299104730132407, -0.0070824833348184235, 0.0063306812048160655, -0.1348900005207893, -0.0680476565798019, 0.08080741656379213, -0.11076340263215749, 0.02566575625875063, -0.09817317546319021, -0.13445553800904658, -0.09465178703630873, 0.13496118988028882, 0.09296024029777433, 0.1479971940325075, 0.018037510415688542, -0.11993122947602217, -0.002877164371166976, 0.007625323591828963, 0.0850311292145248, -0.14118817563251182, -0.0001798118445623376, -0.12733769567356706, -0.038250689619151824, 0.09410879263516504, -0.020225426009556714, -0.028685132475345616, -0.011601368687736499, -0.019214556126761304, 0.08962345160198672, 0.1066700966287649, 0.13518552275631085, 0.10390008849068368, -0.05031122466602838, 0.05043506117776718, -0.025819430587440743, -0.07416217749942916, 0.10007041029402819, -0.1523277871986283, 0.13813841790520617, -0.03689115018338774, 0.05161711766457336, 0.06540450127404375, 0.1081500579370434, 0.046703944766182524, 0.020326409302827836, -0.14017191208574337, -0.009954923789030267, -0.0904991811991686, 0.08368195383305153], [0.004716853930010755, 0.061361667723086995, -0.15861928200008704, -0.10605749499692964, 0.07217689025857486, -0.13556963882678794, -0.15828255560212184, -0.16308934934236166, 0.14690482869633412, 0.05469464406528207, -0.02266387082217817, -0.06583563387651432, -0.06227766600261544, 0.08344174983771997, 0.024517233328345454, -0.09434253281087444, -0.09440263565879284, -0.10682305499202711, 0.04704114552395759, 0.051671864888575725, -0.08145164818506567, -0.1641114539978485, -0.14545492051755385, 0.11908770830598908, -0.045554943579647476, 0.06474947475657786, 0.0647007447037028, -0.024313701090103945, -0.07316213386240537, -0.11213941564115082, 0.02631026054693379, 0.087459475265047, 0.03709742428396743, -5.921746253300831e-05, -0.11885353752676467, 0.14868598566305866, 0.08966536211031838, -0.04999353146676732, 0.15156518548538545, 0.03713939727233253, 0.04381614895445694, 0.05487778043027873, 0.09049041374842373, 0.030008360461321156, -0.08775949446459078, -0.05636561902647185, 0.1138155589624736, -0.10888226781711376, -0.034870741018447796, 0.0023149181233259124, 0.0029300555664711196, 0.04957926689708693, 0.14819485548366151, -0.0712964273349826, -0.09698594044503299, -0.09279959083970796, 0.13321038218459982, 0.025461580140048495, -0.06948482782959392, 0.1267492719777442, 0.12791857816494742, 0.1055715728666349, 0.1353383378126905, -0.07433072961853085, 0.06864067790135595, -0.0020335288782935925, 0.1152426901090165, 0.06541095978547101, 0.1013197090341006, 0.04669920933220984, -0.12159579403599854, 0.016989302717409404, 0.16318323168568438, 0.15058155283134222, -0.12761967141579586, -0.11208487639718456, -0.14095975707431824, 0.08328723191299585, 0.08507547272125725, -0.07206296222151269, -0.0001393289057000393, 0.11970186481221247, 0.07792703900364335, 0.0037589964001734917, -0.006983215682631666, 0.0012561823276721867, -0.08529094154614324, 0.04554271699388925, 0.05821115221283158, 0.11039929864675527, 0.055939086313065475, 0.06421417206969808, -0.09707889330809624, 0.00610447427853211, -0.13633062249964356, -0.08505133405748165, 0.06128030663527606, 0.1729657172477966, -0.13231576854863414, -0.01516613093527858, 0.08132849302570845, -0.10881151293159053, 0.027062099167274214, 0.09727457576158549, 0.043902247268567576, -0.09779241691553883, -0.02260352151902688, 0.09853151873064178, 0.011889844269522576, -0.15177551565735536, 0.06376111288557886, -0.14674563956465755, 0.07560303979492564, -0.07310899615280088, 0.1357052586030366, -0.044685566568175905, -0.06554610476200927, -0.1373194819686906, -0.06304513491079383, 0.12733619084429604, 0.14101984766392783, -0.029536762480431224, -0.020888914100924902, 0.07639033988105186, 0.09670943727105315, 0.048917886516751635, -0.060556486577552374, -0.029612890567353063], [0.05723214154623737, -0.17097391479236643, 0.02211617531267543, -0.037180551721726095, 0.08483525191619239, -0.14129702345756057, 0.05291188555021316, -0.02219386359562022, 0.05869425865269439, -0.14698544289961707, 0.040068065093923334, -0.007442620177589984, 0.02074995044952126, 0.02441702859219629, 0.03188307835079429, 0.06806779360568721, -0.04727266638722, 0.10319116219142975, -0.010922219508849279, -0.12066552872784107, -0.14555659095784373, -0.025772470293435663, 0.0941241307161731, 0.07119509191663993, 0.06553689282137803, -0.020416497629494792, 2.7917477796570833e-05, -0.10129776986624799, -0.06883792142606679, -0.047851505131865965, -0.1122889163013765, -0.055510898057619246, 0.01528663269833203, 0.05686643493720376, 0.15077649432179, 0.11377614189085794, 0.07322426698424374, -0.015697022301906633, 0.03587367138705581, 0.0922278182043795, -0.09038812265293525, -0.032636787814070374, 0.09708497400515001, -0.05236054629614139, 0.03212042904690644, 0.03899724117382558, -0.09567545217877264, -0.049340097926482245, -0.03193102782466042, -0.12129831658075153, -0.16018880307018088, 0.09734105459871255, -0.04637293878026893, 0.00234918950039245, -0.05254615651344852, 0.14058391998570208, -0.08830315261831603, -0.03563359376582238, 0.1134643802460602, 0.09478938307953212, -0.09528839357479926, 0.08785506555606132, -0.033212556939791575, -0.017344269288643598, -0.09431504130640016, -0.11708150515890538, 0.06277338762634188, 0.005405188357296729, -0.008955678053473012, 0.07064549849427978, 0.07929390868130941, -0.08682220571849701, 0.048924842739828764, -0.0888355980157063, 0.060175626692830435, 0.07295391192706781, 0.12342288955342827, -0.13593056800563394, -0.12413168524435363, -0.07325986116354162, -0.08199313689114739, -0.08832611767243126, 0.13407591745292444, -0.07429166759144584, -0.05924137960254607, 0.07383618194011786, -0.02109086290192907, 0.11637774480119956, -0.11970667761722531, -0.0011809522400077512, -0.15589262033112794, -0.12167713798477973, 0.10501815677717924, -0.12016557022256866, 0.01886753730568358, -0.020580397348221192, -0.06301986806998887, 0.13238921546953258, -0.15926537452371997, 0.03350844783073562, 0.14818006073575662, 0.031728110258587974, 0.1453734812051084, -0.1634146466291032, -0.00889393355258599, -0.07429674578184478, 0.06129105412106767, 0.13059184700483684, -0.09326029593992584, 0.042689668513193516, -0.09186074238285771, 0.026727126149537147, 0.0011520403312079914, 0.1439915984391528, 0.02718891170233377, -0.023752338982652478, -0.11238649101958191, -0.11943212322395433, -0.10310284313200889, -0.08348252781273412, 0.10733225871381877, 0.004006330240301186, 0.017222999862246586, -0.12144997495654439, 0.08299268477983152, 0.04918836898043101, -0.11535734139890687, 0.08490656123134788], [0.014870100838796751, -0.1479101201080758, -0.026233623645628344, 0.004607483220214966, -0.11119989347276907, 0.11979998997079801, 0.13264413682040965, 0.03595779965082676, -0.0027628390352578097, -0.04334971409914676, 0.0663182822830516, -0.007417411960620818, -0.1267541159724908, 0.0003008297314313175, 0.06954475679615746, -0.038618235345496146, -0.11310977236548186, 0.08661495817536553, -0.10414762488955838, -0.06790735850115011, -0.11204688910375887, -0.02856959317871333, 0.08867638848106282, 0.01140165663959179, -0.11518909385235891, 0.08994877777488165, 0.136825793873792, 0.13284458353721948, -0.098897129998223, -0.043194412513291876, 0.16316460865653667, 0.11473668329941919, -0.1628948041374336, -0.1532027602021662, -0.005471249732017827, 0.10947631356627283, 0.036256050106991296, 0.011751698259194877, -0.12186105008874473, 0.047401067549531335, 0.1248773962937583, -0.043480146819359716, 0.07467078078339469, 0.12538050172198165, -0.076349841460267, 0.02100660551242029, -0.05682374007626742, 0.07981986560008554, 0.042353501137547156, 0.07043954514883036, 0.08310590784379264, -0.029681124055676467, 0.1520461214473703, 0.007054620289309678, -0.0925764790197159, 0.06455007277297131, 0.07488419500708283, -0.05525071106080786, 0.10422719835437103, 0.11314739231607729, -0.07341176550704316, 0.14686252663313346, -0.13654512700294455, -0.10306370373425565, -0.07826038873920226, 0.14212653265251637, 0.039200709450414276, -0.0961026214223103, -0.00026471546569688617, 0.03555806044972606, -0.13165768753447601, 0.13076689156192065, 0.10326986267028794, 0.02546355459703877, 0.13035521780934692, 0.005050606837281623, 0.12988355550276395, 0.04234407680518556, 0.058385153037683976, -0.1048751513252567, 0.11598474002738574, -0.0333527622941293, -0.094585934325868, -0.14813421863180698, 0.012613731719240323, 0.0028654759322836454, 0.06404480475309125, 0.1534362278980936, -0.11637047271698928, 0.07747109281764715, -0.1106991603480679, 0.12446301135069254, 0.07527852532457334, 0.008658055141887255, 0.0702452241117018, -0.053065682501244354, -0.02938422055292773, 0.11120753765181172, -0.02555925719934882, -0.06624743629255203, 0.0022248757874806036, 0.11339821061703922, -0.03955617113352399, -0.12375967972482546, 0.08363022063185092, 0.09899673045798546, -0.12850956246308515, -0.10129282539600044, -0.12826032153156353, -0.0500037489918653, -0.015101802695749981, 0.08770295045351405, 0.0628090227568138, 0.03494022237316525, -0.04952929998200479, 0.12308517559399115, -0.010545487376296452, 0.1380639082772404, 0.01894184029697531, -0.12119184070769982, 0.05414853642208512, -0.06327898605614853, 0.0746461045524766, -0.13781175450258012, -0.11990224112893359, 0.09309389206442137, -0.0631636829315162, 0.1290637165524033], [-0.05257443244739018, 0.041219972856548596, 0.056759606567436865, 0.022073599842376293, -0.05443596932174044, -0.09293310894254413, -0.13285981775330316, -0.04670998552085693, 0.05604234436333404, 0.11826275640402292, 0.11040794987234503, 0.10873931098350481, 0.11360758047215619, 0.0640965717128987, -0.09694882784271648, 0.10336135047536626, 0.06116049905767194, 0.014249292669824765, -0.0968349094688648, -0.047068427996800305, -0.02588583800566261, 0.10890370747813673, 0.03930974987904045, -0.05263148351125124, 0.15769146842969659, -0.1397383817653535, 0.004285827932463286, -0.12597025869267478, 0.08701996878033709, 0.13917352225164653, -0.055494039844798004, 0.1268843035232689, -0.08472929745195783, 0.13511514996890847, 0.10167419454650363, 0.10279614255603065, -0.1642863462725847, 0.16968182903006604, 0.0870475844986506, -0.07025784802286691, 0.12414941599453101, -0.07719842914365807, 0.11906555142314591, -0.14211409280957085, 0.08236480548388285, 0.038322037433434764, -0.1182485037114312, -0.10079177679014593, -0.13675533375401716, 0.022986613037345, -0.049628673016283924, 0.03099927932593423, -0.0348781058334441, -0.049492872394600235, 0.08447125899534454, -0.11563839357691749, 0.1291384132875073, 0.14231104314662313, 0.034624815514347373, 0.029385620115044052, 0.10218198578333638, -0.09425705433973676, -0.15509804353165205, -0.0977837467920211, 0.1154958966548516, -0.1175408757038984, 0.006948130520428204, 0.1700036099599178, 0.12554476132912196, 0.03613055004293424, -0.10789187259837564, 0.0828784681718803, 0.03271640442907017, -0.09375377148937017, -0.12094743990447682, 0.1519053229603571, 0.04409141626014617, 0.09252046826656722, 0.14692803319623848, 0.03312689970482777, 0.027491606640396824, -0.03091788375394357, -0.03440095480918407, -0.025275066225308028, 0.07130723080918101, 0.01763535240002337, 0.12373759159543828, 0.010441041588773087, 0.023521838669810013, 0.04253299931883291, 0.004730407224432149, 0.08004612786084289, -0.0870788651084383, 0.016535359958277807, -0.13616435752221254, -0.034233077043599014, -0.024891012919754093, 0.04770043789009569, 0.12895037723283231, 0.028506597249577017, 0.09536218460502899, 0.03328137559676043, 0.05027603199287571, -0.14087633472778538, -0.059907628537097884, -0.033796832719611807, -0.00018218968627974215, -0.13478708916557705, -0.11457725082967812, -0.08995450479758331, 0.1519126229897888, -0.030405720030783605, -0.010094422497675469, -0.0757976810627907, 0.02353412944403545, -0.052624193670180515, -0.11553397730371562, 0.028384331241665908, -0.16818515329554493, -0.12611263757438404, -0.09221952238734911, -0.1377388154337535, -0.10362184284878036, -0.060982252063073485, 0.09832784650764802, 0.03291227568848703, 0.010337421985768704, -0.055782252377746214], [0.15298912450312702, -0.03850813159460267, -0.1076581920407252, 0.05065161074836151, -0.14778489159585376, -0.02336421132158335, 0.01435107599868077, 0.09145175438797876, -0.00495906503010541, 0.04400979344493349, 0.1275046873493872, -0.09960245610165244, -0.042517759810716226, -0.005430944115342571, -0.05038447377388756, -0.04201219817573534, 0.13364668751233408, 0.054081059014117985, 0.05630358131023846, -0.06448872375223616, 0.09635625992825535, 0.15846360785878402, 0.11867148930674032, -0.13784384898179747, 0.025946618272502178, -0.15287432182623828, -0.04957708853199184, -0.1413516062214574, 0.0008174342766105239, 0.07284236065302092, -0.10858784565071183, -0.013847394238032188, -0.03748679285280673, -0.059363313374540545, -0.14715071351232611, -0.026423433805714113, 0.07087403545681398, -0.12700227249244025, -0.11643349512014513, -0.0558593415263219, 0.1340022396243555, 0.07353657979957318, 0.03799175685426915, -0.05523859773944459, 0.05736252210373569, -0.15697344646479447, 0.06114921794867467, 0.1096197267981394, 0.06349053024315075, 0.12840450074899987, 0.057318373149465814, -0.14525234141540724, 0.15017578982610338, -0.15805560461503815, 0.030907260265924087, -0.09234678473439101, -0.17510321286038866, -0.0034211042815988474, -0.08615067717091392, -0.025399892655895984, 0.016622646616484906, -0.164213706809605, -0.14245513475943666, 0.0013378997073345345, -0.0392682894519289, 0.07779988196494676, 0.01655728621010873, 0.12661217475045117, 0.04452686515124481, -0.0067485919234466845, 0.06646830147555473, -0.04260002761653855, -0.07683768033573295, 0.10522087476386441, -0.03183063013850519, 0.11250118272934034, 0.07832284663399952, 0.08826305483158821, 0.14648615255461506, -0.0488744314100582, -0.07366938565509035, 0.038769086125478046, -0.030052513113169473, 0.04400510916044661, 0.05398535372709412, 0.0782310253538153, -0.033733732473276164, -0.0915079217005093, -0.01605350046653597, -0.12633902026668534, 0.10181224320830547, -0.02654369000243671, -0.1118558836697659, -0.1337996962961118, 0.0548871214271079, 0.032312414255693644, -0.06266139395483665, -0.14639153616254733, -0.04483083448232173, -0.085190079379045, 0.03073478676283744, 0.0532033823534405, -0.02513803274173856, -0.09660689210537722, 0.1638052017190832, 0.00764776317467337, 0.03260757657198284, -0.13190448245548367, -0.027166756657068674, -0.15319648660861682, 0.022479257389493395, 0.1471151788977619, -0.011973212137461687, -0.13314018273107278, -0.14552867139680745, -0.059497719182626745, -0.12409093230885879, -0.12745049008512957, 0.052715458676495276, -0.005880041233794545, -0.06536542271169574, 0.1015683603918235, -0.10266071901845054, 0.1505665800443872, -0.031525196665292445, 0.09611991884882552, 0.04735576097980853, 0.1116985530144704], [0.1604184674816745, -0.0718103727122445, 0.16113982760528964, -0.01935087232229828, -0.06404183256272672, -0.026302923173588167, 0.024516403027898075, -0.12332815360603495, 0.0005234715812371291, 0.017637469527679018, 0.056805216179183785, 0.09059172323742208, -0.0010367834908743192, -0.04781647096128719, -0.10262651502893651, -0.09478426667922454, -0.12652130440629863, -0.052285733341529306, -0.06222132228325817, 0.1454381134723333, 0.01512169631475885, -0.02246735658783767, 0.039973732182573045, -0.09395001747174142, -0.03457827988624133, 0.035905871066713585, 0.01402611661458503, -0.04709689910093486, 0.12785853545715656, 0.11484338844737538, 0.043784971291768636, 0.030445863690393943, 0.021032445325204294, -0.1130511081195556, -0.06228535848968326, -0.13702641747028244, 0.006787309282810652, 0.017484911333783736, -0.08220138338194115, 0.15258380056895465, 0.12330252259299557, 0.08661856054039048, -0.010795803584029515, 0.11845856914926707, -0.09843439333503942, 0.06532654449009714, -0.0979722250534115, 0.08531633895107399, -0.07326542227329204, 0.1123053165793007, 0.12232021286856788, -0.1334980938316846, 0.006942608178510379, 0.1339779258958788, 0.012283340175381982, 0.12138499187756555, 0.003973927228541087, -0.025961923933890338, -0.09356889383414181, -0.10583912385088971, 0.09982995786125573, -0.05845639095702922, -0.020024155054149652, -0.014290709826795428, 0.028483972073157393, 0.1120870608644754, 0.12006461823497357, -0.028922737690587574, 0.08025126835480739, 0.0822144138796432, 0.03993755760774536, 0.14643018093155952, -0.10313488424914313, -0.1153088313075543, 0.10200378794548903, -0.019580080697783674, 0.08241246729807647, 0.10273949472603312, -0.11968455516931006, 0.09334706456944289, -0.022405965263204482, 0.012291364908563748, 0.026499347336004755, 0.1486983475771055, -0.15471251084409443, 0.013055670984480187, 0.06969079941928087, 0.06361951356713669, 0.06053317849209079, -0.1291203939251989, -0.0741392975829571, -0.03771522081972869, 0.08822233486725911, -0.05474332560411834, -0.06657727685616117, 0.15131634438708746, -0.16268656604304496, 0.13488396549111148, 0.03130639780665224, 0.07530179634270166, -0.08390442055491909, -0.13559633631097387, 0.08913893727987893, 0.08856736853743079, 0.0902970844475508, -0.09191336270329983, 0.05185354265042099, 0.05815662577468759, 0.02791519726371855, 0.07578002953152636, 0.11938669619555128, 0.030282943405255176, -0.11247662356402642, 0.0019244845989116995, -0.13270296687444072, -0.05191288821431549, -0.043767525618219956, -0.11691541143743403, -0.07601575059780245, -0.12792367702840882, 0.08685352675592943, 0.11936643722281026, -0.11360651060012103, 0.16585354115872206, 0.02735459000552927, -0.08348043910005647, -0.11540440096800313, 0.014965901726499883], [0.06770680866603135, 0.07613532628439369, -0.14071111810880932, -0.1566528294591431, -0.026729532074801964, -0.04117791621563105, -0.06267971434568109, -0.07862509765558524, 0.08855516037746076, 0.13819821226731457, -0.06323389846476607, 0.12639676861632798, -0.0440117097066965, -0.032860381653170456, -0.08007197216786874, 0.03801330590657364, 0.12653255759406634, 0.04852337405135572, -0.0489776843172741, 0.06566164434483039, -0.0935990798535074, 0.11723015201657234, -0.029735805551079138, -0.040999607370877884, 0.02068394346978442, 0.06309384407754196, -0.14712276749081182, 0.026243323796152993, -0.10346018394631364, 0.08607699898669012, 0.09431031276702935, 0.06685376121755071, 0.02610004015639408, 0.003104460510589665, -0.12658078706242484, 0.09185914987669812, -0.047924005484580104, -0.019821847564822144, -0.07060128159229474, -0.12017524396628246, 0.029082378982966985, -0.11613601692305905, 0.07770950222444985, -0.037805816613278406, -0.17258516399492912, -0.006401331872705132, -0.11915754958844361, -0.08391866404802992, 0.05925961531681325, -0.1586508436909555, 0.08343562196970593, -0.1507467317046275, -0.0846850619095103, 0.0884054103728435, -0.06589823550121184, -0.13302143391546484, -0.04063472464495422, -0.07005925814797379, 0.1382488763303636, -0.058420280153857376, 0.10160265871240165, 0.14471531924192338, -0.030765371807208182, 0.15646328900608028, -0.03433099620063624, 0.11410161628761506, -0.13446425035847584, 0.05542305218487349, 0.0045561887941366844, -0.050720007418078965, 0.021050847652134313, 0.05696199307624338, -0.1722318456349614, -0.11164598067223415, 0.05913628969352148, 0.02883839699945334, 0.15416181121812672, 0.11393567945162385, 0.12850725252807124, 0.0392923203988546, -0.073450412522993, -0.13390317409061933, 0.0801433345640973, 0.052886959400039575, -0.11549660577293877, -0.04160750271093167, 0.15794888781837602, -0.0029379965684169264, -0.02383631241457586, -0.02281345348881706, -0.10505092378602877, -0.029479446015697387, -0.015111933522011364, -0.1430709473150372, 0.10513065989626247, -0.028588365290469313, 0.12934675380151173, 0.09006190479601803, -0.05933030238123966, 0.05084861307130972, -0.0031336552661300233, 0.11193654554960727, -0.07699702856185574, 0.04323525685986266, 0.009883173962582417, -0.05592729102955807, -0.12352170323794096, 0.07720204751745591, 0.05757498036315352, -0.043207690343478405, 0.045386275903980935, -0.048648629140267546, 0.0750604373577759, -0.10917707831087846, 0.12572733673183795, -0.08153655362334897, -0.04891046443175596, -0.14294898739886971, -0.11822954536738882, 0.014941934082929521, -0.08022297428539674, 0.11214138311176279, -0.13901637733322572, -0.04057300092593556, -0.046555634274098284, -0.15267105242513754, -0.1022572063344488, -0.04590738954001344], [-0.02127982984200443, -0.025268590005658544, 0.0198330532663367, 0.031452155298528975, -0.17101278105145834, -0.027151696283740933, 0.13644172409944685, -0.0029291266378371488, 0.04480617392884602, -0.07970820628154936, 0.08927589004169958, 0.07720281073237209, -0.017426372739421957, 0.12472171721613771, -0.12280800709101755, -0.17099785100232695, 0.0748980074188403, 0.11393276352546707, -0.1219210482229045, -0.07684373760181522, -0.1566948506367107, -0.04263881831070273, 0.11485092025745541, 0.004453162417896201, -0.0418423927141568, -0.06115241438850618, -0.16212137386165934, -0.03958016119185859, 0.03308490656747105, 0.16283641089956494, 0.12063058631116307, -0.15990778884590817, 0.10495033083440886, 0.07729184436768595, 0.10987186213980839, -0.021035317028305692, -0.049872582219495296, -0.048957134066333854, -0.11282986971420819, -0.10748998826238755, -0.10295852165620835, -0.006440829523962674, 0.06921322629684329, -0.021012742907727047, -0.12759671174241086, 0.1296387065681115, 0.13323894303431102, 0.10158529541328584, 0.13752012235266578, 0.006377707766483188, 0.1177864921566971, -0.1625946948277121, -0.03033500532867313, -0.09354074354534317, -0.07515969808545045, -0.0936656231517779, 0.06536040304044499, 0.08727095258219875, 0.016373560103741948, -0.0763186826664288, 0.094533748112698, 0.04153113908587342, -0.039889488771899066, 0.0618671792731203, -0.08257847781437107, -0.08241725000492886, 0.12160296192804458, -0.0433067050473385, -0.03899921801473513, 0.09204163463641109, 0.034425046525352734, -0.14847961663161374, -0.09576827377160296, -0.14032823740587874, 0.033989865738440955, -0.03754288523058479, -0.12588719938729268, 0.14373539573272007, 0.0027805130152185574, -0.07977954647131362, 0.007676566891607675, 0.05402513236386424, -0.15057360103813014, -0.056604473722883714, 0.11720922070924725, 0.0015078316663618306, 0.040791254105478215, -0.007831323294640317, -0.13272864204915874, -0.0820293991280624, -0.04454355814643015, -0.07530384943269758, -0.12707764301809452, 0.11832819669387426, 0.14133650092761058, 0.08192905751128582, 0.11748696134169906, -0.10165988142886978, 0.14897843521689594, -0.11588510948323243, 0.12115571498850049, 0.16677866694139742, 0.0753610788010364, 0.13107403625865097, 0.036427574866226296, -0.05985770867231536, -0.029567118023685342, 0.04220972181101796, -0.14775462528244354, 0.022430513183978148, 0.1457136874476824, -0.09089558041822433, 0.10993624076099612, 0.12474553385806668, 0.16138314539955056, 0.12945396929797298, 0.0221203707663987, 0.1566334521546432, 0.07365138402105129, -0.12026556290313144, 0.023164355167794293, 0.051632529752566485, -0.08379505158813717, 0.021653110785185684, 0.06886997033546621, -0.09829543326702873, 0.01474781043664606, 0.09305249506451829], [0.017118023859183835, -0.1691252547369638, -0.13552284756137695, -0.03138827499728436, 0.1103468319329108, -0.09128286836143068, 0.03056570817522512, -0.08044875829630893, -0.03973280560303966, 0.08182292018873039, 0.07357341314946367, -0.11721261971466153, -0.0433750782166105, -0.14279643173098708, 0.015199683678304758, 0.03421639950271889, -0.10396097182189995, -0.05741601035656742, -0.05071245335528184, 0.13726588989805827, 0.14957583591501927, -0.11788197227698445, 0.10461788143318192, -0.03505428492521316, -0.022291652976605826, 0.06543778449467207, 0.14318639551979334, 0.12599993927753647, 0.0022248609696275765, -0.030985249823724956, 0.10061708308832856, -0.08947112888447321, -0.002863941830077602, -0.05180916296572822, 0.052387162198482495, -0.08126036655150644, -0.12467835742747076, 0.14822850821947475, -0.09459367782430521, -0.019747302042014546, -0.1154652867345749, -0.13307759006759906, -0.16159900321027412, -0.10248024297591836, 0.12793041555039394, -0.07391502822602893, 0.14273974158034727, 0.04769156975744656, -0.022876207588290086, 0.023448506750578246, -0.016796605139281762, 0.05260649017600853, -0.06020714793779073, -0.06265536117296468, 0.14318017989519868, 0.14737589239985857, 0.12338703643453357, -0.011575798329211354, 0.06641975300023131, 0.002163854712693684, 0.003650637757304477, -0.11381556866932266, 0.01957418732073257, -0.10384607997425468, -0.055515887255220345, 0.08714017426104978, -0.11427241805624251, -0.11579606351783651, -0.1675668138053599, 0.13959055017757657, -0.014895646757616997, -0.016913588896779512, 0.0903379735040045, 0.12071064638921405, -0.04520438246327592, 0.05564009618116926, 0.06932982343234838, 0.026095672950471865, -0.09742880684118534, 0.11909727703873073, 0.026367826665188932, -0.07601871421398083, -0.03516755119098845, -0.12427829374410312, -0.11530141144174647, 0.11125698617338071, -0.1240315197136404, -0.019904152087353674, 0.023918132209642486, -0.13859627110529948, 0.12229624703106502, -0.07509705855139033, -0.04604295764391883, -0.0477252427725543, -0.08043031394740915, -0.1583760070999346, 0.05923924490986697, 0.12391820076301822, -0.08646814778397628, 0.03356870971239427, 0.053326068060249636, 0.11167291625688804, -0.0027058518701151683, -0.07516259681227233, -0.03803081891855543, 0.08890327509074455, 0.08884172897994996, -0.10074174936842868, -0.0545643661814122, 0.10551283360581244, 0.10271467877651358, 0.16065416996247875, 0.07787517156530246, -0.037119177054551235, 0.051406566126945996, 0.04210914805986035, -0.11388047804164994, 0.04278036202167321, 0.05470687925333367, -0.1290399686274663, 0.10986061425072804, 0.00242946504282852, 0.13796519026027904, -0.16259776317289995, -0.04469036066996229, 0.0218979049192481, -0.08230317229078728, 0.08564041150753836], [0.0783704230788816, -0.11180561665586465, -0.02553309220479105, 0.018675461078069854, -0.024492703493435252, 0.12441352781652257, 0.0780265391579672, 0.05263897203841216, 0.07064630742924276, -0.029896257463605812, 0.15795490392188888, 0.06473876948168014, 0.049528773815296606, 0.08721057663786522, -0.05712313482717746, 0.08274880759389448, -0.08586249283338963, -0.045574665496939046, -0.05410108136655829, 0.14725363261387145, 0.09616973602564509, 0.06232401150397582, 0.08776953114657014, -0.005502568035708958, 0.16301991062366794, -0.016822493210948034, -0.04495704407992238, -0.08506894082386353, 0.09240027741114713, 0.06317083547971092, -0.046894334848673794, -0.16001725059221134, 0.09602990755149969, -0.16660249724043039, 0.07034951319596593, 0.14440323197586166, -0.006339962460971721, -0.0711194304122735, 0.07049568271979, 0.09845289822346279, 0.030342510782844244, 0.12037804058630683, -0.1430834165331578, -0.003905636005858325, 0.0673655798415978, 0.10192500093782664, -0.11056337496130142, 0.10334777927075887, -0.004000281746052147, -0.017482554103767183, -0.10396364786134549, 0.1164666925345113, -0.10677248434825286, -0.05068800700017395, -0.0428398280477499, 0.09858490892503481, 0.07965070656279431, 0.09054553534046465, -0.08941098622849444, 0.0668737896959656, 0.04506622788909213, 0.08565681182272886, 0.14020031351957407, -0.1502981356038691, 0.03486670343635441, -0.1409754785896535, 0.016421655161494634, -0.06811818690610112, -0.06087604503645744, -0.06939260356532918, 0.016879209721964657, -0.057665339072229545, 0.06551903970008943, -0.02635023130443282, -0.1243191450755795, 0.0782509303456408, -0.07779778717942365, -0.011521608044137498, 0.03029958587399921, -0.061479622573354924, -0.125360795550133, -0.032647358962741284, 0.10983791845106979, 0.0594790609989719, 0.040021468655719775, 0.050318833688933244, -0.09463631591314739, -0.012538868153564333, 0.08356372409852088, -0.11898161360239572, -0.05463273958851373, -0.07473990558018924, -0.012734330462333767, 0.15234395038911983, -0.12873738357362122, 0.027757279283297374, -0.12729776404098023, 0.1535572734413577, -0.12310765054938606, -0.03136757847610262, 0.06780118132375156, 0.04626513376918935, -0.02445755029390328, -0.038768212294327004, -0.04364970312093644, -0.0797013369013377, -0.072182519413901, -0.00470598420350303, -0.0749766707156002, -0.0794394489454572, 0.03474645545255633, 0.13555827512130555, 0.04574923159289133, -0.1247331415069209, -0.12401385524129725, 0.12456619875182076, -0.06651696241240554, -0.13292855589079694, 0.011936763690125527, 0.01728263870960563, 0.04810304828187124, -0.07591620649321561, -0.17644595949483124, 0.11840055577627367, -0.07640432131959711, 0.08098270199143329, 0.042760488441151275, 0.05874757188056647], [-0.04228608748006597, -0.08381247425342216, 0.03732003886572197, 0.12895552544052322, 0.11388968754072058, -0.11131776868601577, -0.08877687220908823, 0.12317943210366704, 0.08332406673486573, 0.0970378279176761, -0.08780766255115845, 0.0068745814736670685, 0.053443165547166674, 0.04691400399314378, -0.03654865383218734, -0.175724214989906, 0.03213896807033042, -0.05218382516740531, -0.030137065555820793, 0.14703857523874816, -0.017949569405759074, 0.12264546770210631, -0.06970646070799816, 0.04458204840827908, 0.12522283084452976, -0.13214016604730894, -0.1681883515566917, 0.0008129272162809105, -0.1073867591244943, 0.0953245359631097, 0.14039286263496453, -0.008387542822799377, -0.09629226501285047, -0.04541341966118135, 0.05220972967206701, -0.14745291741304706, -0.00022888012873010935, 0.0544152791033045, 0.05600467921861936, -0.09735122333317756, 0.08406187449275782, -0.11961177485103752, -0.10757175050152602, 0.08766114789615065, 0.06736289328621368, -0.13655166288652976, -0.05888358015183197, -0.09790798613194296, -0.07813710959946167, -0.059586825532270966, -0.14499190299227832, -0.032375149928955016, 0.05297370241300826, 0.005113541166008349, 0.0483412980049706, -0.12866423088536533, 0.1351392637452307, 0.12049971374002705, 0.07156942506471267, 0.07693870216937478, 0.11968530343172752, -0.013200808228765824, -0.103699193518408, 0.011525674321499695, 0.07016415247819804, 0.06836535729501474, -0.022100480492743428, -0.11800986423492774, -0.06250782644663942, 0.12096320671684853, 0.0190393098978824, 0.037848369469437225, -0.0925923150326221, -0.02328119363193034, 0.10479104580984264, 0.06252627673320184, 0.08074417626542779, -0.03856237992690229, 0.053772911952046455, -0.10278566144619596, 0.04353312783104717, -0.02253173568206569, -0.02546143627172999, 0.06966232621764995, 0.15495379987332678, -0.12776612562849188, 0.11156712921402627, -0.041942850986614176, -0.004493580032876872, -0.1553169789965307, -0.07859331900204083, -0.0010306839832522658, -0.14490428653763307, 0.01268850568666581, 0.12227348185769214, -0.15397676374444388, 0.05819336561715741, -0.04510436256793661, 0.031410055260577455, -0.09372381559318552, -0.10552156212864985, -0.10397179773698567, -0.14234766752858963, -0.10515282008399017, 0.04847135906415064, 0.12535036932062832, 0.07362024882100196, 0.03513111195042858, -0.13938913299300712, -0.07507516162670587, -0.05002390583007621, -0.08069066137236648, 0.004786896466962423, -0.004276013766549007, -0.03921291877807315, -0.05097032936699874, 0.09662517460914989, 0.09348596715570194, -0.07832473244559526, 0.10335491510992678, 0.15149854503640295, -0.0687678314888473, -0.05059771698325136, -0.020131860096005226, 0.12739169119331029, 0.10320717608804218, -0.11037211033365918, -0.01798803510290333], [0.02568252689758043, 0.013995812749991694, -0.09342099936406692, 0.13201864686765188, 0.0320605295970892, 0.10972597668421413, 0.12307577006732526, 0.06397465249343293, -0.025557812860268255, 0.04689691271737145, -0.1125037619337819, 0.02818774176935063, -0.12101037924176129, 0.034216092633188325, -0.07058233179244937, -0.14167517584722866, -0.10997344999217794, -0.12352906072134194, 0.05037044515017923, 0.09113814698431676, 0.013067568335035157, -0.0827715839504442, -0.10838560078359437, -0.16305220859245664, -0.11586150989437116, 0.12695475424752026, -0.10759837172623088, -0.025606295660528702, -0.12436012854062735, -0.06494964081201385, 0.014894686823887355, 0.020720682744157448, -0.09864253807363578, -0.15870902514040508, -0.045307518707568495, -0.08455817160845751, -0.11194082742616826, 0.14971580187267322, 0.04160694937682379, 0.009852719276656326, -0.03254140102957943, -0.018520834958651027, -0.002169432588681463, 0.07880423219951141, 0.03463171723545964, -0.09916758293649455, 0.013302556558098751, -0.015219739339629702, 0.09932613938222869, 0.03302528760491949, -0.0019086552318694418, -0.13723105298750463, 0.005886359528901399, -0.13974366586261322, -0.0690935502512077, -0.12298104690383634, 0.06315980284903785, -0.09079199139438869, -0.04626247187240106, 0.10499069784404275, -0.09756110615719074, -0.021658043366659555, -0.029997341285551215, -0.16806668108405434, 0.08326991812745074, -0.1496801074859969, -0.030593429051775645, 0.03445844456135613, 0.010921169083220491, 0.030019499695112493, -0.10470353687100001, -0.15074031182571695, 0.05018921318771594, 0.027775807593300807, 0.10705955682757953, 0.08828769976426265, 0.11789748162985199, -0.02548486416259527, -0.04921048895016794, 0.0889583732493186, -0.04099044134107119, -0.0997984049897412, 0.08184347743263495, 0.1471395003129372, 0.00959926508249277, -0.13517110287674666, -0.014865293349279027, 0.10285500932881256, 0.13794218329386387, -0.0891784172436981, -0.1385632869674227, 0.10450804975283563, -0.038497403976450684, 0.014095459902650908, 0.12280072121328774, -0.16012922974545016, 0.02382370616506362, -0.15023719749424053, -0.056884845613045486, 0.09264941630709021, -0.008015458327656778, 0.1493211702288045, 0.0059627887074536375, -0.06504542042453888, -0.09703392871323738, -0.047104531894874735, -0.05922945641897248, -0.148117820858968, -0.058634112521882935, -0.014785966307097158, 0.061015991465051475, 0.03584479597334952, 0.06916962799456271, -0.1784907425220152, -0.09026582631833285, 0.03636164797159728, 0.008103079735962469, -0.1509600096815774, 0.08365792548380636, 0.05340058770538984, 0.03633541982725286, -0.14543748062916492, 0.059540258770140096, 0.00256210722402166, 0.0644003161188838, 0.068579711480268, 0.09456548744092151, 0.019349231397643562], [-0.10954145096272165, 0.03886936688636616, 0.03452776203943164, 0.08791506448294413, -0.11656721050611935, -0.0791543552221957, 0.10646319474688813, 0.07694192526096921, 0.12273995619636437, 0.06748445987650359, 0.0505315012076811, 0.02112249635487372, 0.10254176164067204, -0.009468580147263645, 0.04803499325706143, -0.10795517550099973, -0.005949439730603364, 0.08602728984936694, -0.09505705724071452, -0.07705713335794605, -0.058019361231852404, -0.06921077852111235, -0.06784680777440294, -0.048450541699615525, 0.12641251053341743, 0.010031844589300721, -0.11004887779397644, -0.11891711340834683, 0.08771880303882588, -0.027889071226203554, 0.1103158306221945, 0.03283591781662326, 0.08406066665807342, -0.08399998503367846, 0.05594443184507621, -0.05735482032283833, 0.10244058422906506, 0.04237098357217353, -0.05367296433009281, -0.07510003406263992, -0.10538996249951922, 0.06798748404507413, -0.0618674371238864, 0.004456443326596911, -0.09184617755058283, 0.04587121782821871, 0.10168930204605058, 0.08454705363292815, 0.053015644253783134, -0.0950775682403164, -0.12238152042498356, 0.05113168068184694, -0.0664198187856154, -0.03741604529045526, -0.16668869747842796, -0.08467965779505897, -0.12285366035169251, 0.13116739816031975, -0.08683333508339776, 0.013078579791499595, -0.13181102137720108, 0.028885839574944266, -0.05720375842735693, 0.10597472380716996, 0.100028113050525, -0.05959669430837701, 0.11139057215706097, 0.17030061683547892, 0.0826084127116955, 0.09930475564871898, -0.10349289573325944, 0.032392736377500106, -0.12900015669753434, -0.13833529697306368, 0.15766307044355513, -0.07856462746895032, 0.0768891889609869, 0.0845030933725454, 0.11332752761653253, 0.13534132096134555, -0.09203379195974079, -0.1425771401054181, -0.04237175597177478, -0.08655308434492608, -0.12449339212527184, -0.02767496570738653, 0.09530282396741842, 0.031116440081559227, -0.042327993758343924, 0.041732378239472644, -0.06442019688052397, -0.174411048894982, 0.07828462863033617, 0.030462736808492756, 0.07484137184707695, -0.1756580980362596, 0.07632003057138784, 0.01837566594678682, -0.0012919501476564026, 0.03659807424199051, 0.13132416038538158, 0.007044658609427888, 0.0032347174527144846, 0.15943710984426712, 0.05231251584447175, -0.015026100901220443, 0.043064140424560075, -0.053465382777961194, -0.08556458536832764, 0.03697198823405127, 0.10880830877334778, 0.13593853884444287, -0.05221292104991855, -0.022689860932969447, -0.08450229486186749, 0.16228888801454203, 0.15908178504607068, 0.039013821733439105, 0.08634118126853906, 0.0374660344765441, 0.04115442502587522, -0.14562102520927767, -0.03147586641176948, 0.0357933891859042, 0.060179640943356566, -0.028025832282883658, 0.13769342182089642, -0.09871437747994569], [0.003584220335255066, 0.059864982266642414, 0.07367697888749042, 0.059909734575032285, -0.09206120098786534, -0.0996345522503768, 0.05978001423888753, 0.01848516273674982, -0.0798750898600657, 0.048646665191495395, -0.014556463112376456, 0.06772791491551428, 0.11371051437915351, -0.09222781550765759, -0.1411767301618154, 0.06862699856959054, 0.0490890781228424, 0.04474218525735106, 0.1096882617320517, 0.0749622329238853, 0.15045796869950476, 0.02221721874277926, 0.012225082469653726, -0.019107978527308615, -0.11036384324210963, 0.01279742981780223, -0.061271158180782846, 0.15148212673058667, 0.04601091481226182, 0.03442939509903782, -0.030755115148009986, -0.12890170094526476, -0.17009185013730402, -0.044451426932058793, -0.1023873603780388, 0.032395070323296485, 0.091677774436135, 0.13689409731914295, 0.0689689418198715, -0.10704116241897454, 0.10801426210706046, 0.12508696876001896, -0.1145882067791176, 0.04929155597894294, -0.06859753023481438, 0.1149968573598546, 0.14308352946372271, -0.14001190061133767, 0.15248269025497535, 0.04186730532709075, 0.16478459665895578, -0.02881521801825502, 0.12110426865161202, -0.15470492923077492, -0.048162707988357915, -0.12028331935921599, 0.13839873999230717, 0.11205071778606523, 0.08770942906145263, 0.1294270033240259, -0.15908755381897244, -0.05702740577686708, -0.15051421813206045, -0.11561563341663363, -0.07114198674456011, 0.006477946648736309, -0.09344507391265468, -0.11862043612071661, -0.12539879357642145, -0.08769683553404342, 0.15569826364582903, 0.06124423501173096, 0.15927718885770623, 0.0002994012215822453, -0.07102688503612965, 0.10189367645776336, -0.06503361946837045, -0.0811371843432927, -0.06756452121429228, -0.11139078162275541, -0.06320863203442176, -0.025842610272505943, 0.05469468841309117, -0.13126643770285448, -0.10776698038748257, 0.09477293393504901, -0.13256663168765748, -0.028208658691618656, 0.11246689572228184, -0.10911483909137396, -0.13382474681878107, 0.011127433877157804, -0.06690948822980713, 0.03334881758283816, 0.08714852100042325, -0.1401241030959356, 0.004536993456893111, -0.005949644971098401, -0.12943621568243133, 0.021591993003156996, -0.08894756168016471, 0.019988607445713437, -0.11846723443601946, -0.006029241829302547, -0.0463081839483155, 0.12050152579936459, -0.15753439940258415, -0.0443535758448626, -0.030264866944648507, 0.064338467866957, 0.031066177274588245, 0.06068674227011838, 0.09752808850568477, 0.1298199618063487, -0.06134072662391854, -0.0044126955285098265, 0.09796795632523933, 0.16995064683005023, 0.10463755900995933, -0.027698893044630916, -0.08615331363135961, -0.021357972049357073, 0.08265934350926277, -0.011769880715704045, 0.002420366538226748, 0.09460344212576682, -0.03348559223343484, 0.11909238520979759], [-0.03037322557908584, -0.06635408719403345, -0.0029537318358949377, 0.09009976474885117, -0.1375829353432358, -0.08554767413884695, 0.14789277264583423, -0.10635566786894057, 0.04331205936030063, 0.017803181688935542, 0.005673682109359596, 0.04374708352268685, -0.08413183304911744, 0.015165437139741835, -0.015994442618894652, 0.03376506930764063, -0.09067177323058562, 0.02909526926605725, -0.11296063636365483, -0.07068061357026828, -0.08006700873312393, -0.08169904171998181, 0.11302839128378146, -0.07095647679947882, 0.11695144770092088, 0.14661340260702618, 0.023580728700963255, -0.09045837212442107, -0.025246344797329276, 0.10271254061217455, -0.02833168853399155, -0.13285539236869143, -0.007114492963525461, 0.08271461943490395, 0.11155023518600868, -0.0864325403898398, 0.0293831780149344, -0.07077597359753092, -0.0636411189651361, 0.10444492956299437, -0.08249097279728396, -0.06837838687351656, -0.17078494531908084, 0.10082749233006356, 0.06823756999011771, 0.046790612268689635, 0.0617984410209931, -0.09191233864521223, 0.012005753862479703, -0.05368905256933743, -0.10095475720971003, -0.0118747261894883, 0.13022900717866634, -0.16056949372821633, -0.0744793720378396, -0.08710113146476108, -0.08071967995634934, 0.12110122527928127, -0.03017812997989053, -0.005000275056599691, 0.056645857711733846, -0.12919829411601216, -0.01602674823993386, -0.04873707194239071, 0.04049122478784311, 0.15728398229001558, 0.06689360017555401, -0.028977345213254495, 0.07284527098849451, -0.07648211168779413, -0.14927038012357405, -0.11112362162693465, -0.047011088027819, 0.021072077721747004, 0.039289054111157566, 0.11018519232198994, 0.010035557817860334, -0.017255614536881146, -0.12422359439702368, -0.13852421895744454, 0.022010443990142327, -0.003121408721882795, 0.097378467723918, -0.09629343701986176, -0.1549328839290805, -0.023163493493490353, -0.09946647921614482, -0.11808038143712309, 0.07922218014944735, -0.1245490412812834, 0.03980153569362558, -0.06215964216027085, -0.09361639212345071, -0.031247568974411874, 0.09561885376340344, -0.06452835351249536, 0.059479461621681495, -0.12640367363479424, 0.06298843337229337, -0.095666549992082, 0.04356458622933058, 0.03668604175391152, 0.1376282612239451, -0.029760090722833445, -0.12398542117671733, -0.1271450439949931, 0.08019554872922176, -0.008551561628869204, 0.0698607363921216, -0.07980243195381723, -0.04730024320920928, -0.13753668159317567, 0.1367247110089325, 0.032876261540954174, 0.1292068250995584, -0.09328814931246687, 0.04020122378539805, 0.06486395192695989, -0.07570654191553318, 0.09688768265413834, 0.14201889616432287, 0.100844448683675, 0.06661347424218975, -0.07054368497186674, -0.06963912516816517, 0.13531486475405546, -0.13231217345091, 0.06642921211318889], [0.058918009302137954, 0.023527023428992763, 0.1457721510360367, -0.05357748920475618, -0.029904180106154084, -0.11789321583958955, -0.03685267052740181, -0.06941537855230415, -0.059352595703133545, 0.09202798401772991, 0.16020441960674364, -0.07317764719478406, -0.037617696560625, 0.11279021617983757, -0.132052210554992, -0.1293668176287683, -0.0986903649067827, 0.014331491244361848, -0.10263363922192809, 0.12456966019578183, -0.033237334487809696, -0.006820065695979288, -0.09519357892041075, -0.030876640244139348, 0.0712614620616453, 0.06335760910099107, 0.06931201887615696, 0.02858964052199323, 0.12078760347110154, 0.09574508855798419, 0.08638968410281722, -0.1534323191054016, -0.16219547123060118, -0.11335407376419622, 0.07041246608825359, -0.009230817597592728, -0.010107823987600574, 0.1229504962609871, 0.13043789874671205, 0.13738380656650676, -0.04600085843647772, 0.032801326551082824, -0.09301482325883749, -0.10379734492938769, -0.09700049649625496, -0.0690104825768896, -0.0386798473276754, 0.10800749772651813, -0.14190742799716038, 0.08205014609791116, 0.028299475715956163, -0.06814136652070438, -0.004094590959193719, -0.05368109892767553, 0.02804932823267664, -0.032892852489105576, -0.07811203189043704, -0.12491765381014906, -0.010263058905179435, 0.13798240265178122, -0.02452466323696695, 0.05296685687515756, 0.04025436813484004, 0.11392268574020248, 0.11720777800424294, 0.01786215108798168, 0.033821887806671336, 0.13360892047128148, -0.05739829154485977, -0.05569095172356424, -0.12464012075291725, 0.07287040854554494, 0.08602745086687243, -0.10931504884907857, 0.03077259283082946, -0.02293526346318293, -0.1410906417162515, 0.14111551686694004, -0.07085985291064104, -0.12566423179441377, 0.02338007769752625, 0.08330360818624764, -0.14666741042640874, 0.03918263232430242, -0.0067322013002367505, -0.12738484536748737, -0.10851693858340625, 0.026848014603181466, -0.07792538476277397, 0.1407260037608701, 0.09754555811636154, 0.1390087810303979, -0.06600646327654629, 0.13655657558620513, -0.016276556651969653, -0.02023909868466815, -0.14276349030006605, -0.15261593695344497, 0.058531817556201786, -0.01895643371456964, -0.06857596840434972, 0.033917610065059715, -0.09163088807805683, 0.04086827986134328, -0.03278986812268069, 0.09225267592273306, 0.10196547463457895, -0.015201532720606462, -0.06075651997168613, -0.042024645819511215, 0.0860632600946347, -0.04814723193030945, -0.07551025587357209, -0.15337668877711183, -0.02105882575189221, -0.007404348104090818, 0.10304370677555216, -0.09379780642521071, -0.049777357335044584, 0.08008990346395788, 0.09452218145899449, -0.04531173286223324, -0.0425780270546297, -0.054562809109745564, 0.1381260556883007, -0.09120287166136355, 0.11365797880210979, 0.07413388879088542], [-0.008349929413242663, -0.14896506722460517, 0.012425307254038568, -0.021169912978364472, -0.11770239666026697, 0.05125694349293302, 0.15971805607535308, -0.0011290971209096715, 0.09195155184062001, -0.1361908764478175, -0.01855134688251937, -0.11103604645569307, 0.046534691691488904, 0.1624273984392889, 0.08545908976948353, -0.14411521264267624, -0.04387611272217182, 0.009890409403428179, -0.026791496124514116, 0.08689225678123103, 0.0855145788677958, 0.05275444746704421, -0.0235143514183111, -0.08830134301387811, -0.14586990765022012, -0.05407275300504011, -0.0289010840057105, 0.06490545491401002, 0.07386793253718747, -0.1467850024134483, -0.017096709323011005, -0.09672837254882029, -0.12597274524020982, 0.08066456820277307, -0.15939903970817157, -0.004386359878127795, -0.1246405665805404, 0.11179100787569372, 0.03962113627460823, -0.08443972584444409, 0.0030635311926994696, 0.07998884001825213, 0.1265570129466775, -0.10340997402317798, 0.13105375747387732, 0.1173289867053702, 0.15120697285066548, 0.029265687451719397, 0.026273325686580026, -0.014192929911215443, 0.07279161413630834, -0.004475509021055365, 0.06503666220091739, -0.0370235229772402, 0.09998251697548353, 0.12329169486344214, -0.11668343887535873, 0.11389616096838892, -0.01438075268871968, 0.10905529216878923, -0.030665119192335555, -0.05790670943802511, 0.10912680589949979, -0.08563097480100013, 0.11029734857505999, 0.018629204053860194, -0.0027315293803758128, -0.055008038479899025, 0.016077830728433582, -0.03818723934270744, -0.16334031127189447, -0.03657758251981625, -0.15300595342071374, 0.16696884578091653, 0.13029548631631838, -0.01929327215838746, 0.06445814524425839, -0.06322108125850406, 0.07293388297085869, 0.11580349038367824, 0.1539788275854159, -0.022497549850259098, 0.11025158401288289, -0.08016790994009783, 0.1370897218155238, -0.13713093642699528, 0.0226895277410097, 0.06582052242790727, 0.06843993033206133, -0.12888474427826097, 0.11766400735707316, -0.07172285297225382, 0.03430248573730448, -0.08900677249480778, -0.0421098716967957, -0.00960712628389597, -0.022926796591997593, -0.12082075429895918, -0.110470172919205, -0.05258838639677698, 0.0712977702012195, 0.1555865821813024, -0.14067362441050482, -0.012408213805904119, -0.13900645093523814, -0.14248198092205044, 0.02819175715148853, 0.011318155502563172, -0.12230380685004025, -0.09202463390718015, -0.13325606501097875, 0.11741746616530707, 0.15122324020060549, -0.11771780271278004, -0.08235093265284191, 0.09169403775870308, 0.11305709541965238, -0.02852863095903191, -0.1621334623351757, -0.15522309568642098, 0.024171203656871983, -0.05312621862874305, -0.15668735460086777, 0.012711520891670885, -0.14844140951865042, 0.06750024940267975, -0.06549013433843873, -0.1330940593735176], [0.009755046780174489, -0.03995182060318579, 0.16557505200412712, 0.02187217627032057, -0.08676602635996718, 0.0439459073612041, -0.047828956063506775, 0.09756441328839695, -0.013955334349146899, 0.004726884061770961, -0.13943062460871006, -0.002080418680569374, 0.12116340494088132, 0.12532751042282247, -0.07607705178669368, -0.10014589761618783, 0.08009357564357553, 0.1396281043086696, -0.1149015095264317, -0.03535121502413379, -0.0576347454797314, 0.1360545303303486, -0.10654231933525174, -0.09997274831590401, 0.05790308780204623, -0.15063378587251158, 0.007541107744207081, -0.010342288049156453, -0.045904250265827694, -0.05495944703067742, 0.024919497028262003, -0.10413384759382463, -0.005418322494518254, 0.07336236582973941, 0.07144626009568118, -0.0856625885892738, -0.1265177013660529, -0.07988557996514886, -0.024596768707530543, -0.041184849105536915, 0.05859442287149801, -0.1268152930219973, -0.15580294401999892, -0.055461307638213546, 0.0855804441723261, -0.109179988468052, 0.07096281298870263, -0.0789696502298218, 0.13721788729543086, 0.1417222906931316, -0.08387231632992098, -0.10427723172037225, -0.00031089271008202633, -0.09888536520190096, 0.08227580071741027, 0.1315995672448615, 0.037407509705342186, 0.12056273691453984, -0.060685095716602695, -0.10483719107785687, 0.06078929963270963, -0.06231739324645514, 0.02767885549496982, -0.08267027517654434, -0.11707139858620146, 0.1709536773736862, -0.11903040136113477, 0.15190235217049125, 0.13381269990071334, 0.07639539427767932, 0.033087107503296916, 0.058718753545277856, 0.11320509888489322, -0.04155552482753262, -0.025000258678715883, 0.049966819377499375, -0.045493971379866424, -0.03567587209419907, -0.031216808869395977, 0.05009982053765197, 0.12497115049316852, -0.09126368847851159, 0.15539138650332918, 0.05982386855205025, 0.08379391233095351, 0.01020291500999526, 0.07268093125115295, -0.13026088471320946, 0.10343172546282574, -0.15117327636880262, 0.0948707337636957, 0.1820530492601823, -0.06259450766336982, -0.07926947124055497, 0.10716602768711599, -0.10046303212646503, 0.1243373674515835, -0.13970100111328027, -0.11846474273163646, 0.11818779770465386, 0.036518479804432805, 0.14078525910703654, -0.06377052043465166, 0.05677302838362782, 0.02368027953553652, 0.033270813903308216, 0.0315054273484381, 0.0010515486188667949, -0.04189038649079878, -0.07456351264696713, 0.10205421131321993, -0.07491003366860806, 0.07930929811416079, -0.07557451059761344, 0.04155257130509781, 0.0583110288000064, -0.10396043083578325, -0.13354387306810495, -0.13784821797638547, 0.03288112268407331, 0.10212669904048681, -0.1634239741872037, 0.06754564035323443, -0.05806433996674182, -0.006945907324807758, 0.11234987558104287, -0.05989925888721247, 0.0002949381770207442], [-0.14007149337118524, -0.12272765015573862, -0.07009891457493246, -0.13388024463062287, 0.013764414325813209, -0.024877572594419077, 0.023757282956530183, -0.09715081054366202, -0.062055159164852484, 0.03391196226483115, 0.1430368483628477, -0.1134627071932697, 0.14173021591610638, 0.04824877544571379, 0.03639998645894561, -0.021934613982838216, -0.1287320958848793, -0.09624824769585667, 0.02889362980815198, -0.05929385507763393, 0.13056496032496379, -0.017993407767689155, -0.10184104630995329, 0.07146079963770727, -0.07989428264423583, -0.014815296326804967, 0.06863055299607441, 0.1355484482528883, 0.08109076870720612, 0.04279488185372336, 0.06303300896314767, 0.16319048324300017, -0.07945551536766066, -0.16022259935243668, -0.04871383244170224, -0.09491572594130741, 0.03082554749030201, 0.03955509804172079, 0.01199857272216405, -0.17445960987406706, 0.053345115296779405, -0.047954734198122614, 0.04566667800754431, 0.0031848725619398636, -0.039714360979879626, -0.1390845854986491, -0.10562805950171375, 0.09182448967566961, 0.13721388338215848, 0.03319527389816666, -0.13068782804203583, -0.060758512975778944, 0.09897542173047365, 0.06532131545698167, -0.10554800491860436, -0.16259505160533994, 0.06288977798804278, -0.013821699796950871, -0.09065682083238544, -0.12516635711726984, 0.023229084991097375, 0.08198546226336068, 0.11211708420859073, 0.03256807841060306, 0.008117326518645489, -0.11304029016370004, -0.016936108362465962, -0.038626257665868975, 0.02178202435918472, -0.05435387281532701, -0.07542526335657386, -0.14235312495395233, -0.032564481879079336, -0.09888261292857918, -0.11837421122408123, 0.16027420111671764, -0.002712561325985948, -0.012545657479824328, 0.11593181703542818, 0.15494841061118453, 0.018695331671735968, 0.08929689975920198, -0.062339769619481775, -0.04618409410206404, -0.049831342010983846, 0.0777128227939389, 0.05626640260600809, -0.06035637375890189, -0.10501123453830886, 0.03137833867813729, -0.14359344624396847, 0.03254060005201794, 0.04316199688059425, 0.037096644174998014, 0.08908821262534396, 0.12451013420759671, 0.0008339308000868189, 0.08935262962653277, 0.014140197918321334, -0.10735758073973523, -0.13234630662427804, -0.0571812280507761, 0.010896353801802362, 0.027504638176611917, 0.11679764846478835, -0.0744290847011423, -0.11590815131693029, 0.13941810994229187, -0.13926235263438613, -0.016093874004411535, 0.024031244721271227, 0.017526657101827218, -0.1527844230446811, -0.12489850230898991, -0.1099003068684146, 0.047336866770781395, -0.0031217708684496744, -0.07862809402328752, 0.02453248604453991, 0.12790998330116518, -0.11523369937362465, -0.0036374687815575553, 0.05435537391211552, -0.1045364858287992, -0.038217556972877806, 0.0391893338419879, 0.10571896679434731, 0.09266290609402406], [0.04931799522954605, 0.0656230025646286, -0.02386777986940144, 0.06013085617311752, -0.03581451620247468, -0.09050057024585777, 0.08570535156545801, -0.0022365317458063467, -0.05476680127587352, 0.10702403706284697, -0.1373309078540735, -0.06033534233503613, -0.1163136660763215, 0.0970949279467168, 0.039068356770840425, -0.07554988356754508, 0.059869420842721434, -0.032984531961141685, 0.0823682633382442, -0.04213029413883633, -0.021569827836022824, 0.15372611370494993, -0.05186854582659671, -0.11451310649604492, 0.0008451602855071869, 0.12833343158331065, -0.04776789868309274, -0.11517819791725283, -0.02272794948354046, 0.028825072795971372, -0.09289839263420159, 0.0701825668152706, 0.1300530143516631, -0.03988329106372025, -0.06402625023857908, -0.023575929177801082, -0.1415469235794065, 0.13854837801852882, -0.0221044638481791, -0.05854863532896336, 0.07633501851289047, -0.010568191660672435, 0.02528722703669018, -0.16143596309056552, 0.10001789812649434, 0.15704644745231255, 0.06692731011110864, 0.13939911838285884, -0.08161224732743289, 0.018273906769924353, 0.025007557168105484, 0.0026993628332434507, -0.010924610295393643, -0.07648346023053547, -0.10959473183294968, -0.013392825786411646, -0.10865054705781202, 0.09447855399099118, -0.11639609356045981, -0.15346588566810462, 0.0011090681771234907, 0.001961424499483186, 0.09239361408035283, -0.005258523376475364, -0.04244118951346531, 0.08815275129065024, -0.01557329483607844, -0.11433020158825047, 0.004240325389788447, 0.1363490808207838, -0.013490347992145343, -0.04568159693437637, -0.12293456369544555, -0.0909539916378075, -0.03900019778659979, 0.04687695464219899, -0.14112250840237803, 0.1129754903752003, 0.0930518675001912, 0.02890721953991449, 0.0852005183816496, -0.1220414042608633, 0.00354102635251314, 0.03806565984218294, 0.10542890919143316, 0.0914783343571488, -0.0797258001422314, 0.15515450637224334, -0.119190274912883, 0.09809903286163929, 0.12782171740715406, -0.07888767548642762, 0.07004750992898492, -0.11472316851683373, -0.022430061079936944, -0.021968490287702626, 0.0035396651094057995, 0.11511219763803454, 0.032215560201024805, -0.028526096542238987, 0.09070425924065673, 0.16171005312419312, -0.13171717371743213, 0.13378334424510022, -0.1108134737549439, 0.11285240014729303, -0.09408188409309076, -0.1342372803051055, -0.03671259143952068, 0.025966003293872525, -0.019969222966115925, -0.13595655693984726, 0.05060716589403489, 0.13394012142598327, -0.023785218945785523, -0.10811834525595702, -0.0229115428449649, -0.1415707673279162, 0.07781139525452374, 0.10573990705517933, 0.023682725915109698, -0.06407171378145342, 0.11424122517362373, -0.003976207622257131, 0.10572300744239735, 0.027776799589198407, 0.10452612892307442, 0.04825368625548231], [-0.01067401940312232, 0.1563160995428811, 0.021180473652117546, 0.051267807676436614, -0.11090330632683101, 0.03943921664106629, 0.037071732793912904, -0.11362656757799784, -0.15001124007653216, 0.04074211998461302, 0.08839869816442171, -0.009874595461282292, -0.08920331782250585, 0.04568113115748562, -0.13692388192275093, -0.039275010284889146, -0.10281212501899412, -0.08462074912838118, -0.09279553503933168, -0.04768424830618985, -0.13255766946642342, -0.005023729812168393, 0.02618599588541703, -0.005358725100831542, -0.05970695863475301, 0.09975507134444936, -0.1372804469044591, 0.025965221560030678, -0.12444765825513805, -0.11128313256212477, 0.030801698461666607, 0.020104986752482023, 0.09621240607225859, -0.005117188261133187, 0.13464244412358084, -0.13982363344789978, -0.1457183135662049, -0.12691470841380775, -0.09480876407082084, -0.007415126586097519, 0.052445227432725984, -0.1411320463631298, 0.1200409194113571, 0.12615414394537508, -0.08594372843326553, -0.11148952241914029, -0.08139569542305991, -0.11093000423148683, -0.09692987024073556, 0.014740510174117588, -0.0637660150296407, -0.06220237491167814, 0.13469766379935524, 0.034375493346956124, 0.13241089243888027, -0.10573143153829948, -0.026155884489702633, 0.029430964092152533, -0.15028953568473824, -0.15893619953370336, 0.04007700302027048, 0.01843899458516375, -0.046293746771612215, -0.029056215484343246, -0.023746786212467532, -0.14997642289724988, -0.07222219235570587, -0.08682602561917947, -0.14993374218696354, 0.1254830689332662, 0.021318964703038474, 0.06588603142094067, -0.07089418011880931, -0.01607480533741686, -0.08713437801735718, -0.12202912018666873, -0.09478020976393205, 0.07281902702433006, 0.0576429809544933, 0.023549596051584652, -0.027148831039265863, 0.13132875375354314, -0.15074980908408211, -0.04584096936261111, -0.03508294542539054, 0.08040758903630327, 0.15922130627307504, -0.06685650143935837, 0.12202000493777736, 0.09428119188986477, -0.09422410530515624, -0.01377640570861518, -0.03163446870152071, 0.16335040467090914, -0.11009036536489653, 0.06249533175498783, -0.07292612593038522, 0.05436052876239113, -0.043070461504143516, 0.013736678691317035, 0.12012313553553101, 0.10175063648897012, 0.12395180317067275, -0.14726742330825862, 0.06498796716666207, -0.11709104508214431, -0.04780367990334257, 0.0031945577470080936, -0.04796303161480488, -0.005229186206021555, 0.1548172550204637, -0.1163288048207283, 0.06817613046625924, 